float weights_data_dense_1[] = {-0.054006666f, 0.020485684f, 0.00047179312f, -0.024763454f, 0.021788158f, -0.0803025f, 0.030067593f, -0.0029736757f, 0.04597252f, -0.034433316f, -0.0065781325f, 0.04066644f, 0.0841435f, 0.044897966f, -0.07548031f, -0.08061558f, -0.005840227f, 0.047714643f, -0.001068756f, 0.06080123f, 0.083192475f, -0.032964375f, -0.0038405657f, -0.040778104f, -0.061815128f, 0.04863868f, 0.01766482f, 0.021921344f, -0.04806669f, 0.06102339f, -0.010739177f, 0.029212728f, 0.0019775033f, -0.03195863f, 0.031765863f, 0.06792814f, 0.027226701f, 0.014266349f, -0.039126985f, -0.0815742f, 0.013821743f, -0.04467931f, -0.03995528f, 0.06404578f, -0.025341302f, 0.07019023f, 0.020211965f, -0.0028043464f, -0.03942193f, 0.045593597f, 0.047088854f, 0.0226698f, 0.043295197f, 0.027578764f, 0.0021417364f, 0.068383984f, 0.04708024f, -0.070412904f, 0.0062346533f, -0.019247025f, -0.056099527f, 0.08578535f, 1.6599894e-05f, 0.032872148f, -0.017501026f, 0.07179818f, -0.07214579f, 0.025552101f, -0.038332265f, -0.035747107f, 0.011410847f, -0.045147624f, 0.064662315f, -0.024425462f, -0.06251093f, 0.03535326f, -0.05052575f, -0.01951117f, -0.012112454f, 0.068322174f, 0.039149843f, 0.043997504f, 0.06273451f, -0.07450466f, 0.07395565f, 0.07401254f, -0.07605008f, 0.018433012f, -0.006031707f, -0.045704562f, -0.06458105f, -0.056311175f, -0.078189656f, -0.02685665f, 0.08501244f, 0.050924636f, 0.07878301f, -0.052135773f, -0.0019680336f, 0.05447898f, -0.021133482f, -0.019672543f, 0.04566502f, 0.08066333f, -0.01014512f, -0.083027884f, 3.5502017e-05f, 0.056127243f, 0.03382884f, 0.004632674f, 0.05647903f, -0.058169633f, 0.029464975f, 0.03703831f, -0.06830178f, -0.017715737f, -0.0077615604f, 0.066107325f, 0.057115905f, -0.05540048f, 0.131745f, 0.10211157f, 0.027994068f, -0.06718504f, -0.009579198f, -0.016595067f, 0.043501176f, -0.15338728f, 0.18391533f, 0.09087088f, -0.007000398f, 0.027869469f, 0.0065363017f, -0.052685212f, 0.10492779f, -0.04216017f, 0.048932545f, -0.16213055f, 0.029204885f, -0.047309335f, 0.019034198f, 0.013749126f, 0.10376152f, 0.015928423f, 0.06944605f, 0.024171967f, -0.08235341f, -0.031643007f, 0.031763338f, -0.0846879f, 0.103191875f, 0.03974415f, 0.098327234f, -0.019196354f, 0.008687428f, -0.020813337f, 0.06913287f, -0.0579558f, -0.06507948f, -0.10940013f, 0.076421194f, -0.006651029f, -0.03954989f, 0.073297374f, 0.06501586f, 0.041760676f, -0.026433557f, -0.004591301f, -0.009226486f, -0.04285594f, 0.030971907f, -0.03377891f, -0.036015753f, -0.032627378f, -0.03767711f, 0.05120551f, -0.027218848f, 0.016929224f, -0.011577338f, 0.048526354f, -0.020458184f, -0.058647234f, -0.051878758f, -0.037487432f, 0.036200255f, -0.054940805f, 0.05574549f, 0.08049265f, 0.08547556f, -0.01198294f, 0.04669387f, 0.08140259f, -0.08275811f, -0.029592104f, 0.08462388f, 0.04429061f, 0.0729404f, 0.054537512f, -0.078137904f, -0.027301107f, 0.055061184f, 0.063692264f, 0.034122266f, -0.051746216f, 0.027837649f, -0.076438025f, -0.005589448f, -0.079726934f, 0.021543823f, 0.08407088f, 0.06257028f, 0.034944534f, -0.0830711f, -0.008655973f, 0.022048451f, 0.012303874f, -0.0632672f, -0.07443372f, 0.08418224f, -0.06526726f, 0.024691641f, 0.07906274f, 0.021835059f, -0.08308644f, -0.038481075f, 0.05877451f, -0.06580162f, 0.027314372f, -0.030204773f, -0.045211688f, 0.02577395f, 0.08675968f, 0.022154942f, 0.067351304f, -0.080501236f, -0.04626409f, 0.06245827f, -0.015740559f, 0.06445537f, -0.05103879f, -0.058463708f, 0.038555317f, -0.057723146f, 0.011174433f, 0.0055257156f, 0.07189787f, -0.045239896f, -0.010306075f, -0.0053948313f, -0.017232604f, -0.032305636f, 0.083464734f, -0.056788113f, 0.024463639f, -0.019520164f, 0.028421506f, -0.025154669f, 0.074005134f, 0.041004814f, 0.06670741f, -0.023040295f, -0.04717601f, -0.052334365f, -0.0047127977f, 0.06366526f, -0.04270247f, 0.0048551187f, 0.055434234f, -0.028423145f, 0.064246364f, -0.00046364963f, -0.07684463f, -0.028946795f, 0.079735495f, 0.005036965f, -0.019342676f, -0.062157206f, -0.0034463406f, 0.013587713f, -0.07183733f, -0.07719967f, -0.042609807f, 0.012187682f, -0.023748793f, -0.06173349f, -0.052975032f, -0.016773783f, 0.060714237f, 0.08118046f, 0.060992323f, 0.03528087f, -0.05020594f, 0.047180824f, -0.006279275f, 0.0076335818f, -0.0013909489f, -0.009087458f, 0.027398251f, -0.004856631f, 0.022200264f, 0.054123245f, -0.039565474f, 0.06338758f, -0.0776391f, -0.018320262f, -0.075834125f, -0.03900916f, 0.03548769f, -0.022516064f, -0.040206205f, -0.05027375f, 0.018249959f, 0.0722652f, 0.043407463f, 0.06918802f, 0.009102009f, 0.08464875f, -0.048311975f, 0.03473954f, -0.023279257f, -0.016203478f, 0.10103027f, -0.016471213f, 0.03708584f, 0.025053509f, -0.039933458f, -0.081198364f, -0.012381201f, 0.1153158f, -0.030526632f, 0.18602616f, 0.07282399f, -0.09542103f, 0.046258524f, 0.0033449158f, -0.17278992f, -0.066216156f, -0.052838393f, 0.13729776f, 0.03715605f, 0.2931383f, 0.29052487f, -0.2580704f, -0.13434772f, 0.082852356f, -0.20655707f, 0.039812203f, -0.2310923f, 0.21329075f, -0.108046085f, 0.2678576f, 0.31011692f, -0.23340532f, -0.1578845f, -0.07271947f, -0.4116286f, 0.03234482f, -0.25837633f, 0.26696542f, -0.1374657f, 0.16404228f, 0.22698902f, -0.13001859f, -0.17760885f, 0.04869737f, -0.21766943f, 0.14128278f, -0.24652584f, 0.2862202f, -0.03424729f, 0.1888029f, 0.21290447f, -0.1385278f, -0.07954123f, -0.059411127f, -0.14267547f, 0.040918104f, -0.07475767f, 0.13600054f, -0.074801646f, 0.11250548f, 0.22456089f, -0.18847291f, -0.15651917f, 0.028835543f, -0.17433141f, -0.017601699f, -0.109777585f, 0.25568447f, -0.009731585f, -0.0515713f, 0.13140693f, -0.20550327f, -0.09687266f, 0.018390818f, -0.27305847f, 0.03947125f, -0.21422683f, -0.0057320674f, 0.25859252f, 0.06271572f, 0.25868005f, -0.2637294f, -0.0032146366f, 0.049931396f, -0.327141f, 0.11648405f, -0.053759877f, -0.038718797f, 0.2090615f, -0.07335605f, 0.22089253f, -0.2449277f, 0.020156799f, 0.23404023f, -0.46496183f, 0.14718297f, -0.16605029f, -0.03890424f, 0.29330158f, 0.016460802f, 0.010977637f, 0.14218596f, 0.016847078f, 0.24266759f, -0.012284046f, -0.09584712f, 0.0001375549f, 0.10836773f, 0.06536922f, 0.09660235f, 0.062630065f, 0.0005591154f, 0.10549004f, 0.28957874f, 0.2060195f, -0.10550412f, -0.1634066f, 0.06478366f, 0.024586113f, 0.29408607f, 0.19127505f, -0.14087507f, 0.40757602f, 0.17926838f, 0.13362981f, -0.058743395f, -0.2615549f, -0.17880648f, -0.17604119f, 0.15030764f, 0.3322364f, -0.054833915f, 0.1457478f, 0.07767909f, -0.17040771f, -0.01321972f, -0.097231835f, 0.07491032f, 0.065636925f, 0.0028205724f, 0.27391088f, -0.16031645f, -0.05002127f, 0.06484556f, -0.34946445f, -0.027609862f, 0.023478536f, 0.113537855f, 0.059157778f, 0.18184826f, 0.1526603f, -0.24405552f, -0.07217082f, -0.13626781f, -0.16520949f, -0.079575144f, -0.10730884f, 0.27924678f, -0.06650393f, 0.1277163f, 0.29401556f, -0.1945312f, -0.02155995f, -0.22450359f, -0.26653633f, 0.02454308f, -0.084438406f, 0.32587212f, 0.006777272f, 0.013138525f, 0.09353208f, -0.09807315f, -0.1378625f, -0.19705f, -0.008010153f, -0.030050794f, -0.050896354f, 0.1862398f, 0.02521835f, 0.10012534f, 0.099870756f, -0.1073778f, -0.07227564f, -0.22332253f, -0.17836468f, -0.048050337f, -0.17276394f, 0.13001505f, -0.17822495f, 0.2239158f, 0.11549385f, -0.19270124f, -0.076265864f, -0.03615043f, -0.11092853f, -0.080562f, -0.10514678f, 0.083789006f, -0.17375344f, 0.008640446f, 0.04782317f, 0.027304985f, 0.06289569f, -0.02732867f, 0.06611309f, 0.025465176f, -0.052287027f, -0.038075786f, -0.040724427f, 0.012730382f, -0.005918525f, -0.016243152f, -0.041525137f, 0.05170066f, -0.06030509f, -0.0155386105f, 0.06910067f, -0.03837492f, -0.041107185f, -0.060384013f, -0.026722014f, -0.021084547f, 0.016119815f, -0.047055822f, 0.033075213f, -0.02647167f, 0.019125015f, -0.044134874f, -0.017794147f, 0.0466839f, -0.08540884f, 0.03489852f, 0.06467322f, -0.057650626f, -0.046552278f, 0.05940249f, 0.08314457f, -0.040412236f, -0.04293785f, 0.053890474f, -0.00014035404f, 0.08178889f, 0.07420435f, 0.046674542f, 0.07440453f, -0.034700327f, 0.051160865f, -0.0018265843f, -0.046501603f, 0.006145574f, -0.020061582f, -0.07554583f, -0.018279865f, -0.03997762f, 0.053315572f, 0.011538848f, 0.054332145f, -0.004137598f, -0.039047338f, -0.055305317f, 0.018863153f, -0.012323796f, -0.027461952f, -0.007874678f, 0.04303741f, 0.050740488f, 0.0035085792f, 0.03611928f, -0.0101186335f, 0.16918908f, 0.21208356f, -0.11550431f, 0.28620154f, 0.13750637f, -0.031086478f, 0.12678663f, -0.1635046f, -0.039739057f, -0.055302933f, 0.16626368f, 0.20827302f, -0.138258f, 0.09453063f, 0.20228052f, -0.12991974f, 0.20300843f, -0.19453722f, 0.20129092f, -0.12733562f, 0.1552024f, 0.04356779f, -0.07170892f, -0.12665536f, -0.06956266f, -0.2714824f, 0.032529008f, -0.062356643f, 0.25918022f, -0.031972937f, 0.04400801f, 0.15766568f, -0.18870358f, -0.14645118f, -0.16529089f, -0.20377445f, -0.12434558f, -0.0104833795f, 0.23584785f, 0.12910922f, 0.1628821f, 0.3493928f, -0.25633425f, -0.31183624f, -0.084615946f, -0.37182933f, -0.11413496f, -0.13501446f, 0.2978252f, 0.24598128f, 0.28212756f, 0.43617862f, -0.3255473f, -0.39032185f, 0.017625336f, -0.13583535f, 0.04732193f, -0.059617776f, 0.36659783f, -0.079975724f, 0.31156692f, 0.5892179f, -0.25197896f, -0.49743113f, -0.014432171f, 0.021609338f, -0.07528546f, 0.050915696f, 0.391155f, -0.22068095f, 0.1883241f, 0.60197014f, -0.43489245f, -0.36651805f, -0.13287883f, -0.36275724f, -0.03299989f, -0.052531272f, 0.43986624f, -0.15192255f, 0.16680156f, 0.6389057f, -0.44601992f, -0.32063594f, -0.07718304f, -0.18116413f, -0.2892669f, -0.024598198f, 0.3115176f, -0.016827673f, 0.06434891f, 0.38743725f, -0.41006112f, -0.28272265f, -0.06423026f, 0.09733519f, -0.10529116f, -0.030164087f, 0.38900766f, -0.044780936f, 0.03142835f, 0.25014374f, -0.306108f, -0.17993258f, -0.06422737f, 0.19667104f, -0.27853578f, -0.21313536f, 0.4565358f, -0.049023665f, 0.02083175f, 0.29287997f, -0.13529924f, -0.27580458f, -0.19460201f, -0.011633582f, -0.3384537f, 0.13347442f, 0.4070116f, -0.020248901f, -0.032350793f, 0.1238248f, -0.046209257f, -0.28375322f, -0.028536087f, 0.23138021f, -0.17611091f, -0.018501284f, 0.35734758f, -0.02903921f, 0.07747808f, 0.107771456f, -0.098219f, -0.18995698f, -0.15436146f, 0.17536645f, -0.10883227f, -0.017200418f, 0.1521336f, 0.118674666f, 0.09477508f, 0.09154865f, -0.013981702f, -0.12240886f, -0.3430088f, 0.008296502f, -0.34101284f, -0.13560796f, 0.20331743f, 0.09523483f, 0.25914758f, 0.07363257f, 0.010132058f, -0.116355605f, -0.29051363f, -0.09920199f, -0.28484327f, -0.065501146f, 0.23407741f, 0.070561774f, 0.21319845f, 0.21680471f, -0.015872242f, -0.30325708f, -0.22298254f, -0.2711304f, -0.1796991f, -0.0025453793f, 0.36655456f, 0.08968251f, 0.16845478f, 0.23240566f, 0.06340397f, -0.26522058f, -0.09652454f, -0.0955541f, -0.20509009f, -0.019116273f, 0.22313431f, -0.04627023f, 0.10420459f, 0.30083874f, -0.13562387f, -0.12346532f, -0.1116855f, -0.24117681f, 0.07584312f, 0.12354609f, 0.19013132f, -0.0143001415f, -0.122995295f, 0.071492255f, -0.08909201f, -0.16874723f, -0.22468978f, -0.42512196f, 0.04456325f, 0.027429651f, 0.37463006f, -0.03643858f, 0.23768479f, 0.24597828f, -0.38097033f, 0.121240884f, -0.0537391f, -0.055702575f, 0.02536624f, -0.11644644f, 0.07859573f, -0.13990687f, 0.041433815f, 0.33047614f, -0.18686634f, 0.0331168f, 0.11048399f, 0.15455794f, -0.07478987f, 0.14700502f, -0.054743443f, -0.22963504f, 0.08747185f, 0.176009f, -0.20988663f, 0.042935815f, 0.05978002f, 0.2350824f, -0.048243437f, 0.017701596f, -0.14667162f, -0.18951632f, -0.017954744f, 0.043612115f, 0.042298324f, -0.036040332f, 0.00086952f, 0.085273124f, 0.03310085f, -0.0016858727f, -0.04246564f, 0.043501414f, -0.029747114f, 0.014459223f, 0.06493432f, 0.023550242f, 0.046212934f, 0.048747145f, -0.04140986f, 0.026961558f, -0.07555265f, -0.07171583f, 0.00011121482f, -0.052617f, 0.061068334f, -0.077637844f, 0.06422203f, -0.024883889f, 0.0011950508f, 0.035485014f, -0.06898513f, -0.000933066f, 0.033471674f, 0.01997967f, -0.017523468f, -0.022057988f, -0.014443427f, 0.041627206f, -0.08244535f, 0.018208176f, -0.030785128f, -0.04222286f, 0.05915167f, -0.010249657f, -0.06316387f, 0.0038106611f, -0.07651863f, 0.004791254f, 0.030871116f, 0.09600545f, -0.0030520277f, -0.03837349f, 0.25548768f, 0.32996228f, -0.21075755f, 0.14645892f, 0.14076304f, -0.09835472f, 0.1571975f, -0.24049778f, 0.06857368f, -0.029940683f, 0.19756754f, 0.1577364f, -0.16982181f, -0.23796369f, 0.2415442f, -0.2154767f, 0.13944635f, -0.19419417f, 0.06882849f, -0.1380352f, -0.02881773f, -0.025072886f, -0.1565464f, 0.047739025f, -0.113902934f, 0.18910131f, -0.2510274f, 0.024079062f, -0.016104305f, 0.13106264f, -0.013996131f, 0.19567995f, -0.33115745f, -0.1712497f, -0.25142244f, 0.07305561f, -0.28538585f, -0.02008446f, 0.4266316f, 0.18491657f, 0.16408546f, 0.36495063f, -0.49480712f, -0.22723319f, -0.0862289f, -0.07776603f, -0.11078387f, -0.13736795f, 0.24532396f, -0.025973689f, 0.2706007f, 0.39989662f, -0.43548763f, -0.34405115f, 0.045587014f, -0.08136498f, -0.06803674f, -0.3005927f, 0.045582123f, -0.045010254f, 0.3908114f, 0.5017192f, -0.41465774f, -0.30013692f, 0.09655057f, 0.07058645f, -0.23169774f, -0.19237699f, 0.14167204f, -0.18196194f, 0.39597425f, 0.3895648f, -0.49054855f, -0.22100401f, -0.06180891f, 0.08179658f, -0.25631237f, -0.38796312f, 0.03368284f, 0.050042976f, 0.33973792f, 0.35063925f, -0.49000132f, -0.08348056f, -0.10884187f, -0.00565618f, -0.29699415f, -0.22206949f, -0.06326377f, 0.09160137f, 0.07670533f, 0.23272434f, -0.54695404f, 0.07084762f, -0.15624663f, 0.13550943f, -0.14152609f, -0.3968601f, -0.041970234f, 0.18406942f, 0.28088325f, 0.3418103f, -0.56215763f, 0.065299764f, -0.05584142f, 0.22011405f, 0.04058361f, -0.32663372f, 0.072888f, 0.022207433f, 0.1662057f, 0.2750637f, -0.5169529f, -0.022718254f, -0.019310424f, 0.15223773f, -0.19995911f, -0.18154821f, 0.069270745f, 0.18558362f, 0.12000688f, 0.019266112f, -0.2969683f, -0.2177798f, 0.032713562f, 0.14120705f, -0.33018818f, -0.19848108f, 0.13595916f, 0.22827691f, 0.18747202f, -0.029701075f, -0.4035792f, -0.120294444f, 0.030813785f, 0.22856975f, -0.18102594f, -0.067861624f, 0.054565758f, 0.13800319f, 0.18921702f, 0.026437365f, -0.18879068f, -0.08932566f, 0.0056564203f, 0.048154928f, -0.27632877f, -0.08164073f, 0.018191805f, 0.060790073f, 0.13099006f, -0.037749093f, -0.01923882f, -0.23421194f, -0.13356991f, -0.108236864f, -0.1289527f, 0.038611494f, 0.065938234f, 0.095383085f, 0.03278366f, 0.18874243f, -0.16016182f, -0.42640737f, -0.21391177f, -0.13151322f, -0.067220815f, -0.036286376f, 0.25414225f, 0.119315304f, 0.05011648f, 0.011705076f, -0.12518339f, -0.32551432f, -0.070378594f, -0.210308f, -0.29261422f, -0.09723072f, 0.15360014f, 0.10139311f, 0.1284001f, 0.017927049f, 0.23338099f, -0.15869483f, -0.029681401f, -0.27087095f, -0.45559114f, -0.052899655f, 0.17919676f, -0.10150594f, 0.20659915f, 0.09848474f, 0.23983738f, -0.29470435f, -0.12565315f, -0.45580295f, -0.4053358f, 0.11913466f, 0.29430905f, -0.004703467f, 0.25701654f, 0.00081758556f, 0.21297538f, -0.12830482f, -0.13645187f, -0.42258957f, -0.13381389f, -0.079420425f, 0.15895148f, 0.024009636f, 0.20511325f, 0.08333983f, -0.16752356f, -0.23623721f, -0.074714445f, -0.25680715f, -0.089557156f, -0.12447903f, -0.09635279f, 0.032170884f, 0.12487319f, -0.04197526f, -0.030314768f, 0.02076057f, -0.13086773f, 0.06202163f, 0.045763683f, 0.012018605f, -0.20364171f, 0.11616391f, 0.18975301f, 0.028364502f, -0.21985246f, -0.051622596f, -0.2362959f, -0.14059064f, -0.05943778f, 0.12887383f, 0.007642113f, 0.12967533f, 0.035090625f, -0.03190495f, 0.028389797f, -0.057492968f, 0.06903597f, -0.022329532f, -0.06896946f, 0.0035151094f, -0.0114182085f, 0.058513023f, -0.0076919645f, -0.048485033f, -0.004020959f, 0.044335075f, 0.04439809f, 0.06662815f, -0.05049483f, 0.062412612f, -0.08174657f, 0.0009171888f, 0.040548086f, -0.1039382f, -0.059393562f, 0.04936278f, 0.00906487f, -0.022573285f, 0.056946628f, -0.07929652f, -0.00859542f, -0.055728007f, -0.1404745f, -0.11780609f, 0.048893988f, 0.20488282f, -0.089223355f, 0.18043396f, -0.031546608f, 0.03462707f, 0.02004718f, 0.081521325f, -0.13385919f, -0.14221221f, -0.275906f, 0.2345717f, -0.033394217f, 0.17600244f, -0.052045744f, -0.09212981f, -0.03203326f, 0.1910313f, 0.10257324f, 0.04352746f, -0.079101294f, -0.022352567f, -0.14585963f, 0.06215706f, -0.12457483f, 0.08768218f, -0.035188247f, 0.052334696f, 0.09607067f, 0.07828973f, -0.29910794f, 0.0680788f, -0.14824215f, 0.23680463f, -0.3713662f, 0.09757296f, -0.27391627f, -0.029306846f, 0.19016375f, 0.2656421f, -0.323789f, 0.028874125f, -0.0012996944f, 0.067415334f, -0.27605498f, -0.11520368f, -0.0032648076f, -0.016394531f, 0.073371656f, 0.09829036f, -0.29570267f, -0.041751433f, -0.017654166f, 0.015288677f, -0.19093555f, -0.07571013f, -0.17442937f, 0.1048417f, 0.20910268f, 0.07643806f, -0.2528749f, 0.21834807f, 0.06593672f, 0.16490154f, -0.17121941f, -0.15750456f, -0.09346019f, 0.06634745f, 0.18598746f, 0.09215808f, -0.16263086f, 0.2345925f, 0.022242012f, 0.20509315f, -0.060471933f, -0.18868239f, -0.037258144f, -0.00051799364f, 0.1727874f, 0.07340476f, -0.2818346f, 0.22817221f, -0.011780875f, 0.08716271f, -0.05422544f, -0.19722787f, -0.103947334f, 0.07137986f, 0.16976136f, 0.0028627522f, -0.1101151f, 0.20149028f, 0.035934214f, 0.16580085f, -0.09100958f, -0.066152595f, -0.18220513f, 0.18183506f, 0.15817872f, -0.10046187f, -0.037562363f, 0.13496873f, 0.077320844f, 0.19364832f, -0.04304667f, -0.14184651f, -0.057685424f, 0.112244785f, 0.046254884f, -0.057893723f, -0.15309156f, 0.13156873f, 0.08923624f, 0.17327176f, -0.04600274f, -0.1675169f, 0.054318637f, 0.105159126f, 0.23969042f, -0.07921356f, -0.06618441f, 0.0530605f, 0.21987754f, 0.17002133f, -0.03861358f, -0.20085305f, 0.0051117763f, 0.13831992f, 0.18174136f, -0.040966015f, -0.10568018f, 0.11469758f, 0.16794387f, 0.15465327f, -0.034577318f, -0.20872813f, -0.020397954f, 0.29445776f, 0.18672702f, -0.04982017f, -0.0063282433f, -0.14109547f, 0.14469099f, 0.15599626f, -0.027149485f, -0.105412f, 0.08774914f, 0.23079957f, 0.15002921f, -0.0577779f, -0.068501316f, -0.10150274f, 0.13071229f, 0.05128017f, -0.0041863415f, -0.018199377f, 0.02588999f, 0.2377683f, 0.16267802f, -0.11224862f, -0.07505009f, -0.13561891f, 0.016054388f, 0.04882304f, 0.09011733f, -0.059983257f, 0.025967514f, 0.22162016f, 0.05316684f, -0.106702484f, 0.06872733f, -0.26979983f, 0.07440372f, 0.08607869f, -0.007982651f, -0.039869823f, 0.07821178f, 0.2025866f, -0.009171787f, -0.05451463f, 0.03971521f, -0.3293666f, 0.059530117f, 0.104158826f, -0.094240166f, 0.16805135f, 0.18591413f, 0.05853872f, 0.01084816f, -0.08462004f, 0.04395268f, -0.422847f, 0.0047505563f, -0.03165453f, -0.041946724f, 0.14027019f, 0.15700796f, 0.09754025f, -0.20573615f, 0.025485795f, 0.019473586f, -0.4818073f, -0.023876214f, -0.16544326f, -0.14606708f, 0.07185046f, 0.16366306f, 0.11970399f, -0.02290684f, 0.19216835f, 0.13409144f, -0.31754357f, -0.18223439f, -0.3324104f, -0.20820768f, 0.109740905f, 0.25833607f, 0.14245291f, 0.22058143f, -0.11898857f, 0.21792656f, -0.078823365f, -0.046351235f, -0.3686599f, -0.3247535f, -0.1632624f, -0.09798842f, 0.14627352f, 0.15197854f, -0.16639924f, 0.20515962f, 0.33087373f, -0.0133994585f, -0.3998491f, -0.30067295f, -0.09632282f, -0.3485113f, 0.20835018f, 0.19359887f, -0.12874116f, 0.27042815f, 0.24582721f, -0.03978902f, -0.19492084f, -0.36203492f, -0.24993204f, -0.21585794f, 0.18454885f, 0.20481771f, 0.12148768f, -0.12365424f, 0.06621387f, -0.07382827f, -0.16122107f, 0.057129063f, 0.07970674f, 0.14934108f, -0.33432713f, 0.064693965f, 0.055650942f, -0.011587806f, -0.07454518f, -0.062359527f, -0.008022808f, -0.0062324777f, 0.05643136f, -0.042601928f, 0.07316118f, 0.06485397f, -0.07590923f, 0.030579612f, 0.023200974f, -0.049654182f, -0.04694892f, -0.009889826f, -0.02737344f, -0.0037436709f, 0.07391674f, -0.14849861f, -0.003333035f, -0.20835125f, 0.0015104173f, -0.026601948f, 0.16176534f, 0.07359884f, -0.13623208f, 0.22237262f, 0.021938385f, 0.05134584f, -0.27738914f, -0.024340935f, 0.22036216f, 0.04743113f, 0.2501194f, -0.0026975647f, 0.12527403f, -0.110741444f, 0.17643927f, 0.026950136f, -0.000118385025f, -0.20120554f, 0.1447802f, -0.013469579f, 0.29633465f, 0.046781965f, 0.028258406f, -0.17760326f, -0.059796635f, -0.14008904f, -0.27936244f, -0.18061538f, 0.11201588f, -0.17696306f, 0.34044763f, -0.11866312f, 0.077456586f, -0.3132732f, 0.15450709f, -0.00719813f, -0.091763526f, -0.11406531f, 0.051066753f, 0.19316386f, 0.114431664f, -0.089999974f, 0.054699466f, -0.15762334f, -0.006447629f, 0.11491071f, -0.14943105f, -0.117969796f, 0.19426613f, 0.016133284f, 0.10781845f, -0.13623197f, 0.07661912f, -0.10811473f, 0.019585317f, 0.13331324f, 0.1231853f, -0.14156023f, 0.08690642f, 0.011131544f, 0.042705517f, 0.03129422f, 0.14083366f, -0.06119385f, 0.019746121f, 0.12154295f, -0.024161551f, -0.025681242f, 0.09979546f, -0.00405234f, 0.05140623f, -0.11321122f, 0.06872296f, -0.09885371f, 0.07754323f, 0.18361603f, 0.08630722f, -0.20488028f, 0.04560501f, 0.030955093f, -0.04784549f, 0.040579475f, 0.07696557f, -0.03923701f, 0.053613544f, 0.18258345f, -0.113310605f, 0.06436065f, 0.26675642f, 0.07927421f, -0.034529656f, 0.03320519f, 0.03177868f, -0.1134134f, 0.09012159f, 0.16590777f, -0.022882722f, -0.01693633f, 0.056740895f, 0.020397745f, -0.007749379f, -0.119347274f, -0.019291492f, 0.019713549f, 0.03112648f, 0.09401072f, -0.08286492f, 0.07635975f, 0.22064362f, 0.031886067f, 0.0025340242f, -0.007517969f, -0.11346331f, -0.11416673f, -0.0321516f, 0.1813268f, -0.00013310759f, -0.025032578f, 0.1544169f, 0.11290798f, 0.059212673f, 0.13078327f, -0.06884117f, 0.041208096f, 0.07830239f, 0.18211263f, -0.03563371f, -0.00963497f, 0.0744891f, 0.100960255f, 0.16036257f, -0.006019475f, -0.00053358363f, 0.065680854f, 0.057154372f, 0.20503357f, -0.12443296f, -0.055349573f, -0.0044206902f, 0.14277016f, 0.047193557f, -0.008041377f, 0.020864498f, -0.054018486f, 0.11018584f, 0.29511774f, -0.07161059f, 0.0051749838f, -0.070986815f, 0.090763845f, 0.028523257f, 0.039963547f, 0.026954083f, 0.0026023937f, 0.25513715f, 0.16268402f, 0.01597547f, -0.011636379f, -0.037522763f, 0.13530579f, -0.011255555f, 0.14178944f, 0.08426299f, 0.052835338f, 0.23692368f, 0.15079905f, 0.08022827f, 0.067479596f, -0.07542659f, -0.01143719f, 0.07155502f, 0.09174795f, 0.02237717f, 0.046320945f, 0.14381704f, 0.27777666f, -0.0020633836f, 0.031159151f, -0.12977117f, 0.03116509f, 0.006522637f, -8.179489e-05f, 0.082932875f, 0.16585475f, 0.09409851f, 0.1392236f, 0.03390382f, 0.0667869f, -0.29038286f, 0.039249167f, 0.09789064f, 0.0797999f, 0.01721555f, -0.05482973f, 0.1127277f, 0.05107328f, -0.05516729f, -0.0026196835f, -0.34491095f, 0.04713537f, 0.0005182694f, -0.040451445f, 0.06641747f, 0.12507814f, 0.23413885f, -0.17722082f, 0.044768292f, -0.14218608f, -0.421485f, -0.063752376f, -0.1612056f, -0.065367036f, 0.06491848f, 0.22747576f, 0.14402857f, -0.20392995f, 0.024256011f, -0.07091238f, -0.10488817f, -0.20601003f, -0.19329551f, -0.20833044f, 0.10672597f, 0.15831147f, 0.16617636f, 0.24261901f, -0.12459371f, 0.111753605f, 0.20614955f, -0.019504752f, -0.18214996f, -0.25094727f, -0.12366275f, -0.058095776f, 0.1759834f, 0.090011686f, 0.15436365f, -0.10377496f, 0.16205935f, -0.11850243f, -0.2533494f, -0.27468127f, -0.17336386f, 0.16825087f, 0.13518444f, 0.10541697f, 0.14706212f, -0.092599615f, 0.12282968f, -0.24345365f, -0.22873698f, -0.039605584f, 0.11562059f, 0.20524159f, -0.0928817f, -0.0077197626f, -0.061440393f, 0.05991731f, 0.060445674f, 0.059501745f, -0.02704871f, -0.07076764f, -0.08051374f, 0.0061653852f, -0.057476655f, 0.11425131f, -0.13873525f, -0.20029792f, -0.08550561f, -0.034875754f, 0.22457963f, -0.038993005f, -0.02413829f, 0.076722264f, 0.19629988f, -0.018831957f, -0.0048567248f, -0.032458425f, 0.052646257f, -0.02713748f, -0.10384588f, 0.05175538f, -0.07062479f, -0.08225963f, 0.1115158f, -0.07856363f, -0.31997952f, -0.15011469f, 0.29680213f, 0.08475753f, 0.16353822f, -0.0040898174f, 0.13135576f, -0.31287923f, 0.14054896f, 0.1336812f, -0.092507936f, -0.078652345f, -0.05404741f, -0.15375152f, 0.2530846f, -0.15023126f, 0.11053743f, -0.11198469f, 0.081363f, 0.050815236f, -0.16921334f, 0.021099523f, -0.06982853f, -0.09605462f, 0.06623837f, 0.016171334f, 0.22103709f, -0.1285563f, 0.17748511f, 0.010594135f, -0.15907314f, -0.028968053f, 0.15756053f, -0.04243459f, 0.075827f, 0.034780018f, 0.20993267f, -0.19396906f, 0.02002024f, 0.16149308f, -0.017268889f, -0.042450275f, 0.11257926f, -0.11624382f, 0.061722808f, 0.011644731f, 0.2694616f, -0.061089214f, 0.05227554f, 0.1807648f, -0.10983179f, -0.0031694083f, 0.124182634f, -0.04351934f, 0.07827546f, 0.03511126f, 0.22919118f, -0.11020938f, 0.11415635f, 0.14156781f, -0.14911945f, -0.08773172f, 0.13811505f, -0.092366345f, 0.08356963f, 0.07690678f, 0.12928842f, -0.06741217f, 0.15298608f, 0.047905434f, -0.1443591f, 0.060303167f, 0.085353054f, -0.05054274f, 0.062405393f, 0.014128856f, 0.064709514f, -0.12308745f, 0.041417003f, 0.047645833f, -0.046032906f, 0.080998994f, 0.057281587f, 0.0060911733f, 0.03320298f, 0.06944197f, -0.04734918f, -0.2121744f, 0.029419156f, 0.09432477f, -0.0386073f, 0.06687796f, 0.19218263f, 0.011850358f, -0.03897228f, 0.1536104f, -0.073291376f, -0.00015144952f, 0.058009177f, 0.090025604f, -0.07773262f, 0.09153392f, 0.21981208f, -0.049643487f, 0.046931963f, -0.019310948f, -0.099274784f, -0.09592502f, 0.04010057f, 0.086493276f, 0.005830516f, 0.013757575f, 0.20570596f, -0.028638612f, -0.016594924f, 0.047185697f, -0.061949622f, -0.073006764f, 0.1320177f, 0.10001282f, 0.07354759f, 0.12162502f, 0.26829985f, 0.13484417f, 0.018190186f, -0.074119486f, -0.009185345f, -0.07388523f, 0.0978842f, 0.13603474f, 0.0016799546f, 0.10558472f, 0.24460001f, 0.15326636f, 0.0217437f, -0.03970362f, -0.045706693f, -0.20072447f, 0.063887425f, 0.07168288f, -0.03755896f, 0.082975976f, 0.14728849f, 0.08007431f, -0.0585693f, 0.06429434f, -0.097529754f, -0.06610909f, 0.18861702f, 0.05679282f, 0.067294076f, 0.065899014f, 0.1466626f, -0.05145439f, 0.026689472f, -0.080925025f, -0.016883954f, -0.20701154f, 0.10120626f, 0.10153668f, 0.013131094f, 0.20255211f, -0.06779416f, 0.08090961f, -0.047767382f, 0.045327853f, -0.13099274f, -0.135306f, 0.21752402f, 0.032794736f, 0.011931769f, 0.12452129f, 0.01641761f, -0.07913736f, 0.013408333f, 0.024294138f, -0.0959292f, -0.080421686f, 0.13626902f, 0.04290988f, 0.059486844f, 0.14494608f, -0.03620705f, 0.04740025f, 0.044972442f, 0.096093476f, -0.0024383517f, -0.10115594f, 0.08774391f, 0.040475786f, -0.07001557f, 0.028391946f, -0.24350135f, 0.093832016f, -0.03679298f, 0.015011506f, 0.0024075194f, -0.054574158f, 0.10852491f, -0.119556785f, -0.19316491f, 0.04659095f, -0.27808386f, 0.055542164f, -0.23978566f, -0.0029975388f, 0.060204983f, 0.14147079f, 0.17015868f, -0.059525028f, -0.16267438f, -0.061286706f, -0.22808805f, -0.18410236f, -0.39513066f, -0.11553443f, -0.10663468f, 0.27490112f, 0.4644054f, 0.1391054f, -0.16197851f, 0.22789322f, 0.19057852f, -0.12796277f, -0.5257465f, -0.31023172f, -0.14015114f, 0.16472925f, 0.29277992f, -0.19942483f, -0.102729745f, 0.043152295f, -0.057144687f, -0.16076161f, -0.32147756f, -0.17920332f, -0.08523602f, -0.037503414f, 0.31228447f, 0.10946052f, 0.10218812f, -0.106975846f, 0.070314914f, -0.1304074f, -0.0965901f, -0.16849975f, -0.10967845f, 0.2271515f, -0.024512757f, -0.09308906f, -0.07396634f, 0.09550046f, 0.0050627664f, 0.059611507f, -0.03760867f, 0.044341777f, 0.08955608f, -0.024352483f, 0.0644271f, -0.13358414f, -0.19887453f, -0.23312019f, 0.07992508f, -0.044667654f, 0.28070268f, 0.18369237f, -0.018621858f, -0.18184459f, 0.2674972f, 0.09122384f, 0.22922239f, -0.05893324f, 0.05173569f, 0.13096757f, 0.19612151f, 0.09330696f, 0.06743778f, -0.2753012f, -0.11115223f, -0.13434412f, -0.30394003f, -0.24575493f, 0.22110733f, 0.07453129f, 0.32285327f, 0.22456393f, 0.09297816f, -0.38560638f, 0.07529457f, 0.2121098f, -0.096458234f, -0.14534588f, 0.015005099f, -0.04822909f, 0.35220528f, 0.051398747f, 0.17117167f, -0.31901354f, -0.010041288f, 0.13592161f, -0.0719423f, -0.046407964f, -0.1072858f, -0.021248225f, 0.13546453f, 0.030145425f, 0.11871645f, -0.07570468f, 0.09041003f, 0.09255902f, -0.036291145f, -0.08889391f, 0.15324774f, 0.13794367f, 0.07613264f, 0.14477654f, 0.22952175f, -0.16013974f, 0.11051485f, 0.045711912f, -0.019447848f, -0.022074766f, 0.03936991f, -0.020551685f, 0.04440581f, 0.18592443f, 0.16725264f, 0.056124095f, 0.08245718f, 0.1481061f, -0.0016239632f, 0.15860285f, -0.014761778f, -0.14643179f, -0.040725272f, 0.05026702f, 0.091171004f, -0.08050406f, 0.09513228f, 0.1315518f, -0.13114452f, 0.057675064f, 0.113897875f, -0.05907382f, -0.024646098f, 0.13930504f, 0.2286681f, -0.048790827f, 0.12807725f, 0.034466535f, -0.10786131f, 0.10536038f, 0.061201997f, 0.012590339f, 0.036310997f, 0.062331017f, 0.0090303f, -0.1346499f, 0.03661355f, 0.036173187f, 0.011943387f, 0.094091766f, 0.014896595f, -0.0049494496f, -0.0039062188f, 0.09584753f, 0.065994926f, -0.16935912f, 0.021116981f, -0.09783754f, -0.016645174f, 0.07571441f, 0.14475255f, -0.08800012f, 0.0058503603f, 0.07976731f, -0.19397998f, -0.18518911f, 0.08562922f, -0.019841915f, 0.037133183f, 0.11793112f, 0.32779056f, 0.024210816f, 0.003214952f, 0.03987542f, 0.004732534f, -0.21919179f, 0.010153313f, -0.039974596f, 0.085945256f, 0.09175682f, 0.22021426f, -0.050413903f, 0.014939729f, 0.029266724f, -0.17285974f, -0.055939198f, 0.17797081f, -0.016695503f, 0.01501348f, 0.21048842f, 0.33609423f, -0.0073281317f, -0.008372761f, -0.06296069f, -0.09757017f, -0.13401729f, 0.096841685f, -0.037706997f, 0.047665846f, 0.16546862f, 0.15889783f, 0.063469775f, -0.07503957f, 0.071335815f, -0.10703566f, -0.1466096f, 0.1107916f, -0.07347759f, -0.041174874f, 0.20336387f, 0.17039284f, 0.1158924f, -0.029110365f, 0.08390944f, 0.037502207f, -0.10066251f, 0.19420694f, -0.009096556f, 0.042953983f, 0.17585117f, 0.04671323f, 0.19390108f, 0.0019172546f, 0.10565849f, -0.08554453f, -0.15492782f, 0.071604f, -0.018262805f, 0.012500126f, 0.13028684f, -0.082987286f, 0.032289267f, 0.05563773f, 0.056745198f, 0.045026474f, -0.16646473f, 0.18883614f, -0.03812271f, -0.11937284f, 0.13440055f, 0.008968326f, 0.021792836f, 0.028171908f, 0.020801798f, 0.095181696f, -0.066748545f, 0.13024946f, 0.11107821f, -0.037213694f, 0.28069836f, -0.12389429f, 0.031695094f, 0.012122996f, 0.11011725f, -0.016622975f, 0.008366193f, 0.09877049f, -0.012133503f, -0.051365454f, 0.097172156f, -0.16635501f, 0.03514769f, 0.016051738f, 0.033044007f, -0.027600033f, 0.09670248f, 0.03732883f, -0.20393214f, -0.20269041f, 0.0102257375f, -0.13705485f, 0.11726412f, -0.3448624f, 0.040767454f, -0.05536188f, 0.1174991f, 0.21927588f, -0.03870933f, -0.15365964f, 0.07272641f, -0.32835403f, -0.013073716f, -0.7223353f, -0.085513644f, -0.050809294f, 0.04720636f, 0.31485566f, -0.0070155743f, -0.14925058f, 0.050059266f, -0.057581227f, -0.2117306f, -0.643479f, -0.4519344f, -0.20707579f, -0.03325287f, 0.4419351f, -0.102027014f, -0.11243366f, 0.11603585f, 0.12664591f, -0.2544658f, -0.33827698f, -0.35033137f, 0.005130864f, 0.08301344f, 0.24030699f, 0.11333789f, -0.08903472f, 0.05666452f, 0.036351155f, 0.027025456f, -0.17867567f, -0.19411786f, -0.090834774f, 0.13639736f, 0.07615267f, -0.099767976f, -0.00431443f, 0.11754341f, 0.0007364355f, -0.00752376f, 0.11376516f, -0.03643743f, 0.055751577f, 0.07888026f, 0.102763444f, -0.38350677f, -0.20559406f, -0.10395978f, 0.18492986f, -0.15070677f, 0.2636893f, 0.23103704f, 0.17576487f, -0.23311622f, 0.048884414f, -0.06358938f, 0.10426829f, -0.2206098f, -0.08770463f, 0.10287558f, 0.20972908f, 0.14863347f, 0.123810366f, -0.1303109f, -0.1146339f, -0.0053952597f, -0.25928414f, -0.06877825f, -0.036187153f, 0.03641958f, 0.12055458f, 0.13530643f, 0.07267661f, -0.16896893f, 0.053314023f, 0.0687904f, -0.23911208f, -0.13598414f, 0.17388457f, -0.09716923f, 0.39009967f, -0.05533866f, 0.069515586f, -0.16645415f, 0.016832273f, 0.19954316f, -0.1876256f, 0.023371648f, -0.09644513f, -0.14239956f, 0.17495516f, 0.0011522265f, 0.13773482f, -0.14141712f, 0.057379887f, 0.13677068f, -0.13967091f, 0.098011374f, 0.08038615f, 0.0761887f, 0.05115493f, 0.0044833394f, -0.0011048766f, -0.06014132f, -0.011891435f, 0.09223989f, -0.17386423f, 0.1370651f, 0.029413946f, 0.07806485f, 0.118147075f, 0.15992525f, 0.058716204f, -0.017154375f, 0.006021748f, 0.05106978f, -0.16271804f, 0.29367462f, 0.038596217f, -0.07406344f, 0.055876046f, 0.20442042f, -0.022280239f, -0.00613794f, 0.095715016f, 0.053005595f, -0.12967364f, 0.26381472f, -0.005834908f, 0.031285223f, -0.005649124f, 0.2408744f, 0.036992583f, 0.04005799f, 0.1465737f, 0.12132299f, 0.027067048f, 0.1530762f, 0.081790596f, -0.04779932f, 0.07399955f, 0.17701195f, -0.001378323f, -0.006559096f, 0.1323715f, 0.023013134f, -0.09057032f, 0.10232021f, 0.08427517f, -0.023135832f, 0.09832038f, 0.14407425f, -0.034210358f, -0.026501736f, 0.038984712f, 0.021051142f, 0.0445422f, 0.17679231f, 0.07454989f, -0.011064384f, 0.11580366f, 0.17499909f, -0.026039328f, -0.06385533f, 0.046670407f, 0.06512148f, 0.006523823f, 0.21019182f, 0.07698205f, 0.0250994f, 0.08438429f, 0.025140576f, -0.062208798f, -0.044600677f, 0.13826568f, 0.0095046405f, 0.15008436f, 0.13980302f, 0.27099288f, -0.07611647f, 0.08072949f, 0.1294751f, -0.117252804f, -0.109419286f, 0.18097043f, -0.03272892f, 0.12771274f, 0.12330071f, 0.28407153f, -0.049637593f, 0.079869956f, 0.026917098f, -0.05694972f, -0.06411667f, 0.11411567f, 0.0871794f, -0.062444665f, 0.098416515f, 0.2762629f, 0.13210751f, -0.017380495f, 0.11303486f, -0.07553575f, -0.11185716f, 0.1846435f, -0.048488557f, -0.016318226f, 0.16150774f, 0.108612016f, 0.22761388f, 0.0832003f, 0.03955498f, -0.008164037f, -0.095036596f, 0.1689712f, 0.0074075144f, -0.18196796f, 0.2132371f, 0.03330272f, 0.10836545f, 0.06050895f, 0.08527942f, -0.013762914f, -0.19240831f, 0.2207236f, 0.04358073f, -0.16757403f, 0.058890555f, 0.041033134f, 0.13944313f, 0.13304332f, 0.08942494f, -0.064629376f, -0.116296016f, 0.15900595f, 0.043166004f, -0.17128174f, 0.069587216f, -0.055392902f, -0.034194972f, -0.0057199793f, 0.066355914f, -0.006301675f, -0.12283272f, 0.11497188f, 0.04413198f, -0.06180594f, 0.13977867f, 0.0033440914f, -0.10558738f, 0.00025546952f, 0.07652752f, -0.0984498f, -0.056863744f, 0.10612774f, 0.14113796f, -0.14524832f, 0.030416165f, -0.09947338f, 0.015074039f, -0.03949641f, 0.09384284f, -0.029817022f, -0.0056385077f, 0.104261495f, 0.10031669f, -0.30095962f, 0.0699504f, -0.19512738f, 0.0847751f, -0.456764f, 0.2065914f, -0.08371753f, 0.0521597f, 0.18638141f, -0.03960709f, -0.37327865f, 0.3201351f, -0.36581197f, 0.023713162f, -0.93162185f, -0.06348515f, -0.072887324f, -0.035160467f, 0.51577955f, -0.12776116f, -0.43229944f, 0.20687534f, -0.24250592f, -0.30606446f, -0.7442862f, -0.5284646f, -0.21548475f, 0.22000377f, 0.4616877f, -0.03303705f, -0.16335353f, 0.22340584f, 0.045933753f, -0.0679321f, -0.20794134f, -0.38017574f, -0.10605954f, 0.089108676f, 0.28112605f, 0.248692f, -0.27660257f, 0.20428306f, 0.13900407f, 0.00749692f, -0.062653735f, -0.30166867f, -0.12253352f, -0.07956304f, 0.118701f, -0.018233748f, 0.029212125f, 0.020307656f, -0.016173264f, -0.043751594f, -0.008450723f, -0.052084293f, 0.025823304f, 0.007995889f, -0.0399529f, -0.23939092f, -0.20358871f, -0.1463178f, 0.15791886f, -0.04728913f, 0.24113569f, 0.20609562f, 0.16945249f, -0.2270707f, 0.015029991f, -0.10849233f, 0.054812685f, -0.3222006f, 0.03919156f, -0.0087578995f, 0.33650312f, 0.1405631f, 0.16469148f, -0.26771036f, 0.1452743f, -0.09395794f, -0.27720597f, 0.014177748f, 0.15458854f, -0.11676054f, -0.0028940875f, 0.076479696f, -0.03559508f, -0.1487177f, 0.004545467f, 0.071138814f, -0.04618211f, -0.06768992f, 0.13769461f, -0.024810579f, 0.3868776f, 0.15834075f, 0.0089869f, -0.28874454f, -0.00480976f, 0.16388011f, -0.18650009f, 0.14991285f, 0.1284973f, -0.05095079f, 0.18176633f, 0.0758309f, 0.068159506f, -0.37716377f, -0.058801666f, 0.08665358f, -0.128909f, 0.216408f, 0.059640173f, -0.007406937f, 0.10728505f, 0.09228929f, -0.045541797f, 0.039570976f, 0.11497322f, -0.03136498f, -0.21638086f, 0.20378049f, 0.029657334f, -0.04021246f, 0.060510717f, 0.13018003f, -0.057045966f, -0.0095574055f, 0.1266128f, 0.026718406f, -0.17336416f, 0.19000211f, 0.06153004f, -0.011792432f, 0.09849806f, 0.1008461f, -0.101043604f, 0.0047218087f, 0.12315435f, 0.12957501f, -0.07579272f, 0.20205179f, -0.027018381f, -0.014478562f, 0.087770194f, 0.15489843f, 0.0131637715f, -0.09861898f, 0.039890252f, 0.044581413f, -0.083232045f, 0.30501795f, 0.045550454f, -0.03410378f, -0.08638972f, 0.18270122f, -0.0023196237f, -0.033986654f, 0.008156066f, 0.04856132f, -0.029373297f, 0.23927133f, 0.023771198f, -0.08356446f, -0.12848522f, 0.101759255f, -0.09879175f, -0.11224024f, 0.012705078f, -0.02558326f, 0.075468495f, 0.32338688f, 0.014923919f, -0.05893469f, -0.0976806f, 0.18037687f, -0.036906328f, -0.05286559f, 0.05370198f, -0.0138046825f, 0.10662981f, 0.20120007f, 0.11337239f, 0.09262304f, -0.017776946f, 0.2212838f, -0.13423753f, -0.04970226f, 0.12836726f, -0.020816462f, 0.13621007f, 0.097464815f, 0.42458266f, 0.031190794f, 0.18686277f, 0.10978537f, -0.11407595f, -0.14065383f, 0.08603638f, -0.08441626f, 0.077946275f, -0.0109044565f, 0.45312524f, -0.09869183f, 0.14085554f, 0.13105796f, -0.055738594f, -0.09554814f, 0.1919067f, 0.01426333f, -0.07716382f, 0.056478757f, 0.13847739f, 0.0047427854f, 0.15733281f, 0.06980598f, 0.07119799f, -0.19082727f, 0.036481004f, 0.07810517f, -0.08801973f, 0.013684976f, 0.12504418f, 0.08680248f, 0.09904039f, 0.021640884f, 0.07625263f, -0.16603836f, 0.039796676f, 0.06705686f, -0.24215275f, 0.097453706f, 0.10800469f, 0.17412531f, 0.085635975f, 0.08206412f, 0.09022226f, -0.17633128f, 0.054721326f, 0.117327206f, -0.16404694f, 0.11005757f, 0.12638997f, 0.2543683f, -0.028135056f, 0.15807022f, 0.067074634f, -0.10803738f, 0.093511656f, 0.07746343f, -0.1882262f, -0.036249615f, 0.14545311f, 0.10673823f, 0.006408064f, 0.043484256f, -0.019215161f, -0.0119640725f, 0.09363894f, 0.034241717f, -0.17293455f, -0.004088365f, 2.687356e-05f, 0.08147594f, 0.035592735f, 0.09508249f, 0.011553979f, 0.041952815f, 0.07142107f, 0.08389739f, -0.21048646f, -0.015205419f, 0.025752025f, -0.0065398384f, -0.03801987f, 0.13755439f, -0.07868348f, 0.014827287f, 0.010285507f, 0.11519939f, -0.2941322f, 0.044087403f, -0.19364621f, 0.17574078f, -0.44250056f, 0.12323969f, -0.1426681f, 0.09008996f, 0.05157298f, -0.09794264f, -0.2412599f, 0.099069715f, -0.29966566f, -0.08845423f, -0.9505444f, 0.017481802f, -0.39158788f, -0.107972495f, 0.47121453f, -0.013696297f, -0.46951193f, 0.24280836f, -0.23342155f, -0.2407459f, -0.55822414f, -0.36462864f, -0.3464628f, -0.00093352096f, 0.6047723f, 0.031584013f, -0.5307022f, 0.17207643f, 0.0058520003f, -0.15817109f, 0.25418803f, -0.37546736f, -0.4056781f, -0.16344672f, 0.2790605f, -0.1918959f, -0.20665692f, -0.1864768f, 0.0719006f, -0.10101146f, 0.12906717f, 0.19420783f, -0.18266991f, -0.28590074f, 0.074901834f, -0.0014217431f, 0.02641169f, 0.026944535f, -0.0650542f, 0.07551993f, -0.060416803f, 0.10305357f, 0.033177286f, 0.030750163f, 0.05518064f, -0.30826494f, -0.08793876f, -0.071347974f, 0.09845346f, -0.040582374f, 0.23332061f, 0.2610832f, 0.16976865f, -0.011568864f, 0.07813663f, -0.068812035f, -0.07867463f, -0.3168447f, 0.22317043f, -0.08741138f, 0.1664228f, 0.20026202f, 0.036377225f, -0.33174375f, 0.072008274f, -0.010979156f, -0.24891071f, -0.20035514f, 0.41160092f, -0.14038911f, -0.07290436f, 0.03565545f, -0.1613273f, -0.42305103f, 0.18477958f, 0.082577966f, -0.0966836f, 0.16879408f, 0.010285157f, -0.023966566f, 0.031260945f, 0.097058415f, -0.13034269f, -0.32826245f, -0.03872472f, 0.008539923f, 0.0010850175f, 0.1704376f, 0.103884235f, -0.13224377f, -0.00021613721f, 0.18068258f, 0.031905916f, -0.15617628f, -0.0850631f, 0.08916718f, -0.13270462f, 0.14038594f, 0.09707911f, -0.0012653649f, 0.053796202f, 0.08079016f, -0.02485189f, -0.07894434f, -0.15845798f, 0.043464776f, -0.07081706f, 0.21818486f, 0.09010963f, 0.032800168f, -0.05827639f, 0.12531176f, -0.027259102f, 0.06854206f, 0.055922568f, 0.00965376f, -0.03194549f, 0.19113436f, -0.050205685f, -0.1127152f, -0.064115964f, 0.18963313f, -0.015910098f, 0.15945454f, 0.1013976f, 0.036931906f, 0.025938397f, 0.29546925f, -0.03459835f, -0.08430664f, -0.22323777f, 0.12401114f, -0.0058504576f, 0.030570008f, 0.02831027f, 0.08940247f, -0.033231612f, 0.29787186f, -0.07249051f, -0.1564142f, -0.29351982f, 0.23649314f, 0.041676532f, -0.03533812f, 0.04618439f, -0.025498731f, 0.0037377253f, 0.30470568f, -0.14676088f, -0.01576386f, -0.3041664f, 0.18357326f, -0.047395866f, 0.02564404f, 0.057484947f, -0.050774682f, -0.0036032032f, 0.3252402f, -0.06628147f, 0.020435572f, -0.31129986f, 0.19477195f, -0.044841334f, -0.07497408f, 0.033403706f, -0.12100445f, 0.041035105f, 0.26474202f, 0.14608796f, -0.100563794f, -0.06929107f, 0.2770791f, -0.030628731f, 0.0149803525f, 0.2923228f, -0.13688432f, 0.04898167f, 0.06005446f, 0.2896851f, -0.02038633f, 0.098312646f, 0.14283724f, -0.3694052f, 0.0027677128f, 0.117741436f, -0.19830996f, 0.06276756f, -0.003430183f, 0.23632865f, -0.13275322f, 0.21704601f, 0.10549876f, -0.097894736f, -0.009163452f, 0.18214847f, -0.09171983f, -0.17086698f, -0.115223736f, 0.25154394f, -0.19324055f, 0.15912211f, 0.058780264f, 0.06142235f, -0.028500343f, -0.022593284f, 0.07921922f, -0.1721055f, 0.025742752f, 0.20838311f, 0.055452656f, 0.10300743f, 0.1456952f, 0.18323793f, -0.127543f, 0.06883037f, 0.096099205f, -0.24594341f, 0.09963122f, 0.11506956f, 0.10254792f, 0.006193228f, 0.15989465f, 0.12562934f, -0.11373147f, 0.06868279f, 0.08914259f, -0.27192554f, 0.039025366f, 0.1982574f, 0.08864912f, 0.08157551f, 0.055732146f, 0.092258625f, -0.0037472192f, 0.1330269f, 0.0320482f, -0.060953245f, -0.0016479153f, 0.15285093f, 0.104587175f, -0.046445172f, 0.04446908f, 0.0468834f, 0.042307734f, 0.099005006f, 0.02092187f, -0.2742268f, -0.07723503f, 0.13815244f, 0.13307986f, 0.04632722f, 0.059714418f, 0.0055895043f, -0.009704302f, 0.04283304f, 0.01419854f, -0.23655681f, 0.03776134f, 0.16048095f, 0.15585665f, -0.13332231f, 0.052630868f, -0.093536444f, 0.10890865f, -0.052526835f, 0.29304042f, -0.22563937f, -0.019155413f, -0.09218476f, 0.05452509f, -0.38610637f, 0.113620706f, -0.31230268f, -0.06348296f, 0.14605121f, 0.088540226f, -0.29673034f, -0.13482387f, -0.5387659f, -0.25376895f, -0.71659815f, 0.14618394f, -0.38300493f, -0.20252007f, 0.5499534f, -0.24401f, -0.38151252f, -0.028900381f, -0.3549813f, -0.44891268f, -0.07054469f, -0.15612952f, -0.3374853f, -0.11927149f, 0.7506546f, 0.058747116f, -0.30011964f, -0.0442424f, -0.02143161f, -0.22668964f, 0.3101413f, -0.046748534f, -0.48842987f, -0.22789556f, 0.37488082f, -0.13070889f, -0.22757356f, 0.04951095f, 0.14877304f, -0.036819566f, 0.27340484f, 0.22388378f, -0.10926545f, -0.21526007f, 0.021328587f, -0.22382802f, -0.024379201f, 0.1646129f, 0.09438318f, -0.010521375f, 0.24516107f, 0.06012279f, 0.0826194f, -0.05089616f, -0.08531234f, -0.20756443f, -0.123424195f, -0.05014098f, 0.029333536f, -0.15505166f, 0.2784952f, 0.15850824f, 0.10110196f, 0.055261508f, -0.038942546f, -0.033382405f, -0.097033486f, -0.15407752f, 0.219992f, -0.18347773f, -0.15956844f, 0.105920285f, 0.03224901f, -0.12652774f, 0.16391337f, -0.24071313f, -0.45890704f, -0.18300684f, 0.17805298f, -0.036448102f, -0.07611772f, 0.123152256f, 0.17495307f, -0.5021188f, 0.35456967f, -0.015256807f, -0.20256698f, 0.073002994f, 0.047981374f, -0.20791422f, -0.23426117f, 0.023503827f, -0.0063390606f, -0.22420979f, 0.04903648f, 0.03864839f, -0.05192642f, 0.14585859f, 0.007260046f, -0.214562f, -0.12424166f, 0.07490271f, -0.0815268f, 0.12953693f, -0.2502919f, -0.007722182f, -0.09655537f, 0.1224309f, 0.020432798f, -0.12471384f, -0.22610083f, 0.12680553f, -0.0431356f, -0.0072295163f, -0.11922056f, -0.052526187f, -0.026380412f, 0.2475525f, 0.16822074f, -0.020199781f, -0.31977877f, 0.1593675f, -0.06640602f, 0.12743935f, -0.0889093f, -0.0019400896f, 0.02149341f, 0.33001316f, 0.021112042f, -0.058376845f, -0.44925907f, 0.038781706f, -0.072269626f, 0.10133428f, 0.024040129f, 0.0107163545f, -0.07078372f, 0.2725965f, 0.023622079f, -0.0049907546f, -0.34587222f, 0.11492685f, 0.06263673f, 0.20047732f, 0.054189086f, -0.087450475f, -0.097032316f, 0.30635086f, -0.019055381f, -0.014741653f, -0.38940993f, 0.100764915f, 0.13079725f, 0.06971791f, -0.026046291f, -0.05534985f, -0.06402938f, 0.25023675f, 0.010952459f, 0.019571343f, -0.2714476f, 0.11048565f, 0.07713437f, -0.09569242f, 0.10264921f, -0.11026318f, 0.0064852806f, 0.25308576f, -0.10139237f, -0.05364253f, -0.22505017f, 0.12574314f, 0.15545708f, 0.1455584f, 0.19545728f, -0.1292614f, 0.03045393f, 0.20752667f, -0.06285117f, 0.02621536f, -0.1284402f, -0.06830535f, -0.24720939f, 0.15771884f, 0.36638796f, -0.28394252f, 0.027132329f, 0.1800739f, 0.14156263f, -0.007818669f, 0.19856231f, -0.23054664f, -0.3531763f, 0.06887673f, 0.28025076f, -0.28056744f, -0.19495924f, 0.055391345f, 0.27972895f, -0.08265184f, 0.09370795f, -0.18548356f, 0.013226698f, 0.16583674f, 0.0664812f, -0.016083458f, -0.12154647f, -0.03941305f, 0.18895635f, -0.16845822f, -0.040597003f, 0.033598743f, 0.14309831f, 0.1411364f, -0.009437985f, 0.0362365f, -0.17115687f, 0.08016855f, 0.18902336f, -0.13965827f, -0.003082682f, 0.055175554f, 0.2537627f, -0.10943245f, 0.019274242f, 0.0019929651f, -0.11423511f, 0.09914052f, 0.32986876f, -0.051030602f, -0.036121435f, 0.04338587f, 0.20746428f, -0.10608866f, 0.06474143f, 0.023717035f, 0.061382715f, 0.10581892f, 0.20551468f, 0.08358065f, 0.0563788f, 0.070619926f, 0.17914407f, 0.049676165f, -0.068057016f, 0.01870702f, -0.07676583f, 0.043543722f, 0.41099665f, -0.003306708f, 0.05690217f, 0.054198787f, 0.049678423f, -0.019733138f, -0.030019544f, -0.11287857f, 0.09144192f, -0.0811494f, 0.2259897f, 0.06666777f, -0.0939889f, 0.097410366f, -0.012190752f, 0.045578666f, -0.19941445f, -0.017667025f, -0.034083545f, 0.15644212f, 0.31499746f, 0.12804727f, -0.052266937f, 0.11864625f, -0.062027317f, 0.08960307f, -0.18182024f, 0.19158755f, -0.08033578f, 0.118649855f, -0.10973634f, 0.15899275f, -0.24638768f, -0.058125168f, -0.3120619f, 0.15868333f, -0.045506727f, 0.43604395f, -0.2038552f, 0.034436762f, -0.390487f, 0.09959533f, -0.26387355f, 0.043940015f, -0.5645379f, 0.0632026f, 0.19287144f, 0.2799064f, -0.3429753f, 0.08714288f, -0.23585418f, -0.24706939f, 0.1542831f, -0.25248036f, -0.37579986f, -0.10184939f, 0.34124038f, 0.2074813f, -0.39401054f, 0.3400553f, -0.037416972f, -0.2062726f, 0.15179054f, -0.04397015f, -0.5553608f, -0.1599755f, 0.4657381f, -0.06564192f, -0.18624161f, 0.17691615f, 0.07923184f, 0.16413456f, 0.009363708f, -0.13704766f, -0.06643108f, 0.18154469f, 0.20427434f, -0.088624924f, -0.026908357f, -0.0027172994f, 0.11188664f, 0.056584306f, 0.09964493f, 0.004923578f, 0.011988667f, -0.03579204f, -0.013363395f, -0.09017059f, -0.00311406f, -0.09379957f, 0.13403411f, 0.07527821f, -0.2071726f, 0.15351644f, 0.034304295f, -0.05319918f, -0.18650647f, -0.10496777f, 0.17298676f, -0.1321387f, 0.30780235f, -0.019365437f, 0.065139465f, 0.10947161f, 0.06397684f, -0.28706774f, -0.123686366f, -0.010684298f, -0.11999505f, -0.22118397f, 0.060957514f, -0.13158813f, -0.30679977f, -0.09036655f, 0.20021562f, -0.27726203f, 0.1367798f, 0.048399255f, -0.10099731f, 0.0009435721f, 0.27562276f, -0.26120773f, -0.2997345f, 0.11184832f, 0.017075935f, -0.25635275f, -0.1199509f, 0.06320348f, 0.02567069f, 0.11712603f, 0.1174762f, -0.22235f, -0.3587529f, -0.027868327f, 0.0071614264f, -0.06637908f, -0.149377f, -0.18817757f, 0.0119109275f, 0.15201148f, 0.025364514f, -0.10123205f, -0.56958807f, 0.055558603f, -0.0023539586f, 0.14755382f, 0.0871775f, -0.11294722f, -0.0448081f, 0.17927554f, 0.011807492f, -0.020790527f, -0.612509f, 0.00076607446f, 0.09446497f, 0.14789361f, -0.020383995f, -0.156891f, -0.02152914f, 0.087489724f, 0.054352462f, -0.037411615f, -0.3975328f, 0.05877818f, 0.18452275f, 0.16193253f, 0.03036693f, -0.024383225f, -0.008002545f, 0.05598189f, 0.06893481f, -0.059750274f, -0.28443557f, 0.03762882f, 0.116106994f, 0.030293757f, -0.022664404f, -0.017562903f, -0.04511688f, 0.054825597f, 0.013417763f, 0.018858451f, -0.2006902f, 0.025066148f, 0.18116507f, 0.02828043f, 0.213523f, -0.037510987f, 0.0004635996f, -0.010051159f, -0.16411719f, 0.0076915207f, -0.25701013f, -0.056236606f, 0.27519518f, 0.011556889f, 0.14950198f, -0.046697825f, -0.032371867f, -0.037086565f, -0.23679695f, 0.13082059f, -0.10762461f, -0.092612155f, 0.21694827f, 0.073228106f, 0.23917921f, -0.0861341f, 0.024029125f, 0.049897227f, -0.23835279f, 0.15647365f, -0.055900592f, -0.35340288f, -0.12615792f, 0.17344461f, 0.31978446f, -0.24059732f, 0.062739655f, 0.08527306f, 0.017929982f, -0.036334146f, 0.2351697f, -0.46300587f, -0.21560794f, 0.075786345f, 0.16837886f, -0.26725572f, -0.012240771f, 0.08652276f, 0.18318152f, -0.14358917f, 0.040713087f, -0.20870353f, -0.015532549f, 0.10973519f, 0.11231263f, -0.11022697f, -0.05279315f, 0.06955907f, 0.25511798f, -0.047512352f, -0.02257416f, 0.003301031f, 0.24198185f, 0.14642586f, 0.03375691f, 0.036970556f, -0.15749669f, 0.084917925f, 0.2963674f, -0.03953059f, -0.09778938f, 0.033385154f, 0.11692262f, 0.01174695f, -0.020239944f, -0.02565364f, 0.004881118f, 0.024540143f, 0.17854999f, -0.060894042f, -0.09881047f, -0.0075523043f, 0.24080965f, -0.10580294f, 0.023735534f, 0.06471041f, -0.08056907f, 0.16822855f, 0.20540972f, -0.029440273f, -0.08047491f, -0.06426591f, 0.081446f, -0.0034267425f, -0.13039717f, -0.08299274f, -0.051871274f, 0.15414348f, 0.15999334f, 0.06493583f, -0.19870411f, -0.10519279f, 0.0671514f, 0.10827087f, -0.14032093f, -0.060676843f, 0.12560959f, 0.1367413f, 0.17568435f, 0.07645597f, -0.16110106f, -0.15222114f, -0.007148251f, 0.13286227f, -0.20355576f, -0.08603165f, 0.030636447f, 0.13091864f, 0.30887878f, 0.21281675f, -0.39015952f, -0.12083449f, 0.09327325f, 0.12583862f, -0.2651934f, 0.19675966f, 0.11064249f, 0.16183797f, 0.07177424f, 0.3648048f, -0.35633123f, -0.036604397f, -0.2570357f, 0.31590632f, -0.12394523f, 0.52166224f, 0.059071455f, 0.02402425f, -0.41913697f, 0.4554366f, -0.051804148f, 0.14158884f, -0.19926496f, 0.33322662f, -0.22786805f, 0.5276821f, -0.13650207f, 0.070589185f, 0.15533331f, 0.13288572f, 0.4059237f, -0.04019321f, -0.32279116f, -0.0907002f, -0.055846144f, 0.2730274f, -0.25137538f, 0.1692503f, 0.12338671f, 0.052771594f, 0.19284958f, -0.24728179f, -0.31881043f, -0.33158144f, 0.15157308f, 0.09130229f, -0.057037372f, 0.012718343f, -0.26293516f, 0.28664723f, 0.0370549f, -0.30108914f, -0.17358732f, -0.06465475f, -0.06884534f, 0.045582317f, 0.05194897f, -0.028620204f, -0.0997543f, 0.066570304f, 0.106345184f, -0.021184802f, -0.08219352f, 0.107416205f, 0.10587187f, 0.10421576f, -0.048325453f, -0.032507237f, 0.14178026f, 0.08409026f, -0.24402788f, 0.21925771f, -0.061444625f, 0.00067787064f, -0.086300336f, -0.22753356f, -0.052277047f, -0.22648604f, 0.21212608f, 0.022355339f, 0.061762806f, 0.20289813f, 0.16047841f, -0.13484192f, -0.1985469f, -0.09376111f, -0.039491363f, -0.11060942f, 0.24869116f, -0.31795487f, -0.27132046f, -0.13020854f, 0.077469f, -0.33117607f, 0.051897727f, -0.19001135f, -0.010833383f, 0.06710632f, 0.29710302f, -0.29880068f, -0.49116907f, -0.31411222f, 0.15997504f, -0.43276992f, -0.08199271f, -0.13960728f, 0.01352272f, -0.007552676f, 0.10740438f, -0.007537246f, -0.6615815f, -0.024797393f, 0.0056586396f, -0.10955212f, -0.0051992787f, -0.20334874f, -0.02152358f, -0.100650676f, -0.009666456f, 0.05548347f, -0.59887207f, 0.005764297f, 0.15712564f, 0.07689699f, 0.070216194f, -0.07687347f, 0.025000384f, 0.010959567f, 0.010453167f, 0.009511836f, -0.5294734f, -0.1628947f, 0.13031985f, -0.006760113f, 0.09036862f, -0.07941031f, -0.05044777f, 0.0870043f, 0.015607201f, 0.08138358f, -0.2054156f, -0.13389702f, 0.079591334f, -0.06940755f, 0.11668252f, -0.012126534f, -0.03648376f, -0.027573438f, -0.055706896f, 0.08346155f, -0.10781072f, -0.06392683f, 0.18414025f, 0.08503393f, 0.03959353f, -0.029909266f, 0.06849146f, -0.09298127f, -0.022871558f, -0.013151488f, -0.25572738f, -0.0760085f, 0.24083327f, 0.019444289f, 0.20790575f, 0.09479173f, 0.008978458f, -0.10845113f, -0.19076373f, -0.0069683725f, -0.13198695f, -0.106095836f, 0.17727016f, 0.082672946f, 0.17894062f, 0.09621496f, 0.074172296f, -0.114953205f, -0.2729942f, 0.12780407f, -0.055026982f, -0.3468157f, 0.092232585f, 0.06631628f, 0.24753353f, 0.04211672f, 0.18629496f, 0.003754821f, -0.09174627f, 0.055975206f, 0.11957023f, -0.50202197f, -0.19362755f, 0.01017336f, 0.17870307f, 0.02764197f, 0.09885065f, 0.05160387f, 0.09771697f, -0.076709636f, 0.2648296f, -0.22956003f, -0.10730198f, 0.09218404f, 0.25576815f, -0.08127691f, 0.08540009f, 0.07773477f, 0.22275467f, -0.18544737f, 0.15339287f, -0.22431497f, 0.08075357f, 0.3265051f, -0.010638494f, -0.043013673f, -0.009242703f, 0.04925968f, 0.18457091f, -0.09639106f, -0.02253441f, -0.14503986f, 0.12094873f, 0.11496097f, 0.099495865f, -0.012221865f, -0.056587934f, 0.044392236f, 0.1881215f, -0.012035881f, -0.041760392f, -0.05325458f, 0.22301908f, 0.11005306f, -0.046065263f, 0.08887965f, -0.052374076f, 0.0855235f, 0.052277863f, -0.121378005f, -0.007741064f, -0.068195954f, 0.12922344f, -0.04864068f, -0.01011957f, 0.07847424f, 0.041029327f, 0.20395541f, 0.013357307f, -0.10471537f, -0.09331853f, -0.1399039f, 0.04853135f, -0.017701581f, -0.068902895f, -0.076079085f, -0.009517779f, 0.14180008f, 0.042788394f, -0.035287373f, -0.09066331f, -0.25841174f, 0.06721198f, 0.06179864f, -0.07161577f, -0.1989983f, 0.027054472f, 0.068400525f, 0.06109283f, 0.097269446f, -0.035240274f, -0.13583419f, 0.124163225f, 0.062287483f, -0.031699557f, -0.112171404f, 0.095011644f, 0.24067187f, 0.014324999f, 0.12550615f, -0.3728211f, -0.18757421f, -0.012647519f, 0.25010452f, -0.16324514f, 0.21179612f, 0.32967198f, 0.04135813f, -0.12708834f, 0.12832804f, -0.16373205f, -0.0544574f, -0.046024024f, 0.28853208f, -0.05885118f, 0.105447866f, 0.20534672f, -0.1190202f, -0.1211682f, 0.35895756f, 0.073991545f, 0.2642927f, -0.09108679f, 0.11729661f, -0.010733587f, 0.30802935f, -0.13817608f, 0.020395072f, -0.012444365f, 0.035115793f, 0.59210765f, -0.030670745f, -0.1641768f, -0.19436523f, -0.2837075f, 0.29321316f, -0.12352259f, 0.18579008f, -0.05992929f, 0.34870142f, 0.48469502f, -0.05645273f, -0.16888173f, -0.24205941f, -0.2405563f, 0.20938055f, 0.0658142f, 0.07631656f, -0.024923598f, 0.1701457f, 0.14637642f, -0.29875484f, -0.15003045f, -0.11633236f, -0.14954928f, 0.22185118f, -0.12940685f, -0.18767756f, -0.2639713f, 0.012686923f, -0.0962556f, 0.081650324f, -0.24573947f, -0.050913464f, 0.24844986f, -0.13285933f, -0.09997964f, -0.018730635f, 0.1155664f, -0.025981003f, -0.047364898f, -0.0222093f, -0.072205916f, 0.006694423f, 0.11826477f, -0.28709605f, -0.056246907f, -0.07139889f, 0.22467162f, -0.09857391f, 0.005306896f, 0.359812f, 0.16831514f, -0.1111313f, -0.038210236f, -0.033292517f, -0.061952434f, -0.0784375f, 0.1778469f, -0.19106466f, -0.23771638f, -0.082967065f, 0.024892468f, -0.024609985f, 0.10099329f, -0.20370643f, -0.18046263f, 0.14388187f, 0.11191653f, -0.1937973f, -0.1574085f, -0.19844788f, 0.17569438f, -0.4944042f, 0.10320159f, -0.263366f, 0.19612923f, -0.16937007f, -0.06106958f, 0.22037297f, -0.42356682f, -0.08009748f, 0.17080607f, -0.15036446f, 0.04143338f, -0.059621107f, 0.17683266f, 0.013447877f, -0.021715246f, 0.062055394f, -0.3313414f, -0.20945959f, 0.10273627f, 0.02690419f, 0.022116482f, -0.1043509f, 0.13716097f, 0.010841426f, 0.030851489f, 0.16301417f, -0.18908682f, -0.066317074f, 0.2441247f, 0.039865237f, 0.06251216f, -0.13508695f, 0.19070555f, -0.0018455706f, -0.11936405f, 0.07392397f, -0.052573945f, -0.0814205f, 0.14411257f, 0.009823137f, 0.15801466f, -0.032870486f, 0.17279789f, -0.11941627f, -0.163458f, 0.07204055f, -0.083383664f, -0.110596724f, 0.17868976f, -0.021168496f, 0.23094985f, 0.10647584f, 0.18617588f, -0.044636015f, -0.13503425f, -0.021944735f, -0.16823864f, -0.07134913f, 0.14273873f, -0.07513548f, 0.23115548f, 0.18551f, 0.162833f, 0.018101865f, -0.14903979f, 0.20214114f, -0.09569734f, -0.11902764f, 0.27277595f, 0.06545797f, 0.068305165f, 0.20943375f, 0.17128527f, -0.030007552f, -0.18010607f, 0.07591625f, -0.042862058f, -0.30994645f, 0.14922808f, 0.06164919f, 0.27987292f, 0.18929699f, 0.11823386f, 0.071710184f, -0.07551715f, 0.010006671f, 0.1860968f, -0.36071914f, -0.14452055f, 0.120544545f, 0.22224341f, 0.057990592f, 0.073533855f, 0.18296209f, 0.114079885f, -0.11527636f, 0.27695593f, -0.20750526f, 0.056223214f, 0.25470895f, 0.12195426f, 0.04388217f, 0.029706594f, 0.039472166f, 0.20762223f, -0.10755556f, 0.11896215f, -0.19559222f, 0.087160915f, 0.22453617f, 0.16831657f, 0.053155374f, 0.0060751764f, -0.009100893f, 0.11820016f, -0.14663681f, -0.02557997f, -0.18468726f, 0.22713782f, 0.10946632f, -0.061247665f, 0.079307035f, -0.13807166f, 0.16516124f, 0.09322269f, -0.11129893f, -0.012135342f, -0.18238331f, 0.32513455f, 0.013796647f, 0.0024625272f, 0.0865432f, -0.043694917f, 0.06593028f, 0.059293553f, -0.1287853f, -0.036227904f, -0.08188685f, 0.26654106f, -0.23968153f, -0.012782585f, -0.123366304f, 0.0027537644f, 0.13662115f, 0.085046165f, 0.01118454f, 0.046050984f, -0.12383689f, 0.2734052f, -0.056151982f, -0.053788804f, -0.2471726f, -0.0044156774f, -0.009289963f, 0.036444806f, 0.059410565f, 0.0041195797f, -0.16413097f, 0.18400276f, -0.053945925f, 0.10311447f, -0.18228222f, 0.10845079f, -0.14771797f, 0.090148576f, 0.08580166f, 0.02553757f, -0.072530046f, 0.040794935f, 0.03335334f, 0.0867063f, -0.19543071f, 0.18019754f, -0.10470361f, -0.028228728f, -0.029793136f, 0.041128796f, -0.014967355f, 0.1027348f, 0.09194895f, 0.06557616f, -0.13496292f, 0.21186443f, -0.091196306f, -0.053933766f, 0.07741843f, -0.053961504f, 0.2128965f, 0.051144425f, -0.04995022f, 0.127161f, 0.060784902f, 0.20375153f, -0.21942589f, -0.19025256f, -0.006878066f, 0.059279934f, 0.17305167f, -0.18494372f, -0.0014724326f, 0.14170526f, 0.13589966f, 0.08445849f, 0.084925026f, -0.059068184f, -0.09788919f, 0.22400019f, -0.006922026f, 0.14384529f, 0.050302904f, -0.21385698f, 0.39577928f, 0.07051511f, 0.16795976f, 0.1604825f, 0.31120902f, 0.4549141f, -0.14792348f, -0.3576514f, -0.24562144f, -0.43362933f, 0.21418951f, 0.16468763f, 0.08955558f, -0.0036361997f, 0.24660859f, 0.13004133f, 0.040503643f, -0.12377648f, -0.18387945f, -0.105567195f, 0.15520085f, -0.2155834f, -0.10828314f, -0.2245186f, 0.034425773f, -0.097495094f, 0.048906714f, -0.13019577f, 0.024392687f, 0.17204256f, -0.14686549f, -0.051779244f, -0.13340206f, -0.021225896f, 0.033463016f, 0.06367547f, -0.1338019f, -0.078495555f, -0.06881286f, 0.16604675f, -0.13586345f, 0.084249616f, -0.29252276f, -0.31010965f, -0.16358401f, 0.12685886f, 0.321872f, 0.13836916f, 0.20036972f, 0.18220492f, -0.18987617f, -0.14413366f, 0.012394974f, -0.0047782026f, -0.09922486f, 0.006371037f, -0.016490202f, 0.2490515f, 0.0013272093f, -0.11541088f, -0.10843752f, -0.1715105f, -0.013419452f, 0.13046747f, -0.02735169f, 0.022045065f, -0.15343767f, 0.079732135f, -0.2234739f, -0.18971378f, 0.09475147f, 0.05511338f, -0.16546376f, 0.082351044f, 0.13609754f, 0.022398962f, -0.053572062f, 0.09897786f, -0.25479642f, -0.008032277f, 0.01520136f, 0.0779012f, -0.11009082f, -0.096670434f, 0.07311112f, -0.020155897f, -0.15057336f, 0.071923666f, -0.11745158f, 0.09821991f, -0.05083528f, 0.08649172f, -0.04913445f, -0.10460726f, 0.19328155f, -0.04231575f, -0.11046517f, 0.16584505f, -0.056346122f, 0.13195895f, 0.019786177f, 0.15489277f, 0.08483833f, -0.11249334f, 0.09474472f, -0.011589591f, -0.16246073f, 0.2064206f, -0.012452286f, 0.108781956f, 0.060262643f, 0.19077592f, 0.047715608f, -0.09625707f, 0.18873508f, -0.097030416f, -0.17931898f, 0.1844896f, 0.038128532f, 0.24032678f, -0.028147414f, 0.18302773f, 0.08967692f, -0.13093154f, 0.15332794f, -0.18257198f, -0.07229445f, 0.11822344f, -0.112965524f, 0.16652042f, 0.06974029f, 0.123615526f, 0.096144f, -0.08160192f, 0.070398435f, 0.0001433086f, -0.115808055f, 0.2334029f, 0.023524161f, 0.13814908f, 0.16694614f, 0.12587748f, 0.075103216f, -0.14837492f, 0.093377665f, 0.1021702f, -0.21605559f, 0.055616822f, 0.09042413f, 0.2342495f, 0.271576f, 0.11809523f, 0.14269423f, -0.041056868f, -0.033264723f, 0.3666422f, -0.18492907f, -0.053595427f, 0.111717515f, 0.16841003f, 0.13013071f, 0.20096639f, 0.050646484f, -0.0017520997f, -0.09206279f, 0.35678127f, -0.17111014f, 0.03590679f, 0.33546f, 0.18388163f, 0.012269131f, 0.06898482f, 0.06780288f, 0.08094409f, -0.17506295f, 0.17639971f, -0.12692061f, 0.16604662f, 0.17192729f, 0.03962827f, 0.053096373f, -0.012262055f, 0.12397534f, 0.06342892f, -0.17465699f, 0.019228734f, -0.12582883f, 0.2945149f, 0.10956561f, -0.0017247512f, 0.093062885f, -0.0065991622f, 0.19526143f, -0.043254893f, -0.0901155f, -0.023418635f, -0.15352179f, 0.363432f, -0.10110576f, -0.101152055f, -0.0054818736f, -0.00406739f, 0.107583374f, -0.009527042f, 0.005913141f, -0.008423704f, -0.03377364f, 0.22758931f, -0.1818111f, 0.064666785f, -0.012477274f, 0.08559932f, -0.127588f, 0.0013347332f, 0.06005608f, 0.043905668f, -0.13963939f, 0.14456727f, -0.104690164f, 0.026472205f, -0.074234f, 0.13311009f, -0.09553351f, 0.06707805f, 0.03230723f, -0.072164334f, -0.07586304f, 0.103687234f, -0.12694043f, 0.20052393f, -0.0934292f, 0.12338409f, -0.16967785f, 0.012056155f, -0.019340182f, 0.06363416f, 0.007966443f, 0.17378645f, -0.11863276f, 0.14105318f, -0.18349539f, 0.01671924f, -0.17260695f, 0.06831742f, 0.050163962f, -0.017709715f, 0.054612197f, 0.1936316f, -0.16841364f, 0.101612054f, -0.03250811f, 0.017126782f, -0.1355527f, -0.13416605f, -0.04241367f, -0.08066908f, 0.2368635f, 0.018891022f, -0.03686485f, 0.12346411f, 0.2211675f, 0.17429328f, -0.27306566f, -0.007962517f, -0.18894885f, 0.16354993f, 0.19515856f, -0.16140592f, -0.041076586f, 0.13845167f, 0.3456907f, 0.19546865f, -0.006168571f, 0.034293067f, -0.111094095f, 0.13784164f, -0.04756003f, 0.042284105f, 0.006448156f, -0.47502515f, 0.22071086f, -0.1511975f, -0.010717854f, 0.07254242f, -0.0746446f, 0.47730994f, 0.025706379f, 0.06022325f, -0.1462316f, -0.46339446f, 0.23603381f, 0.016704973f, 0.09098554f, 0.21518682f, -0.033033397f, 0.22201896f, -0.065869704f, -0.024188641f, -0.2328994f, -0.1812889f, -0.20525698f, 0.07060101f, 0.19905522f, 0.0599672f, 0.03979727f, 0.03452737f, 0.14978196f, 0.098524325f, 0.024725314f, -0.08594272f, -0.13452956f, -0.06634911f, -0.17070825f, 0.029336859f, -0.11281738f, 0.12818196f, -0.10099934f, 0.023527822f, 0.069172665f, 0.14880162f, 0.054437034f, 0.014144995f, -0.2906842f, 0.050246548f, -0.19752172f, 0.2560865f, 0.08768157f, -0.085095f, 0.10644972f, 0.05877191f, 0.22573486f, 0.09795867f, -0.16574761f, 0.10520921f, -0.12643705f, 0.123903945f, -0.08231412f, 0.019698508f, -0.13016443f, -0.080715135f, 0.15297014f, -0.08086049f, -0.21309322f, 0.26565903f, -0.09407064f, 0.019560855f, -0.056800414f, -0.1090083f, -0.2748977f, -0.081344634f, 0.06752027f, 0.1269889f, -0.22065775f, -0.109656684f, 0.101594605f, 0.115988456f, -0.039989457f, -0.07166519f, -0.26618895f, -0.06778019f, 0.14528367f, 0.03948333f, -0.15943196f, -0.14776087f, 0.13987926f, 0.07567884f, -0.164974f, 0.13153279f, -0.09842736f, -0.04001189f, -0.065536484f, 0.19292927f, 0.06000308f, -0.033897184f, 0.1364471f, -0.02342792f, -0.0062346775f, 0.2587065f, 0.024307083f, -0.046672773f, -0.049848083f, 0.071623124f, 0.090728074f, -0.088628106f, 0.14772677f, -0.09009855f, -0.06694057f, 0.18514118f, 0.06482254f, 0.12868634f, 0.105359465f, 0.19978757f, 0.08931668f, -0.18097559f, 0.3083277f, 0.032059904f, -0.0018389854f, 0.12901069f, -0.070689574f, 0.10371494f, 0.08078034f, 0.25805512f, 0.112132385f, 0.014804422f, 0.23907602f, -0.025119586f, -0.07391289f, 0.05815782f, 0.020972434f, 0.14624572f, 0.060382493f, 0.21390858f, 0.106835105f, -0.0470429f, 0.12606873f, -0.018922787f, -0.005764257f, 0.09932162f, 0.09988523f, -0.019058732f, 0.18273711f, 0.10566908f, 0.1772476f, 0.025182027f, 0.021834059f, 0.11050637f, -0.11928656f, 0.033232696f, 0.10228862f, 0.015608557f, 0.26903018f, 0.029979441f, 0.15547271f, -0.0099231545f, -0.22538109f, 0.36395907f, -0.17135794f, 0.018626753f, 0.20691922f, 0.15889813f, 0.17070633f, 0.08643931f, 0.21952397f, -0.100002125f, -0.1640056f, 0.3393328f, -0.13398537f, 0.21099679f, 0.30201465f, 0.122042626f, 0.07358978f, 0.054425105f, 0.238269f, -0.03317034f, -0.098368414f, 0.04524133f, -0.06139388f, 0.31644288f, 0.11838236f, 0.011046314f, 0.21272673f, -6.617294e-05f, 0.20892203f, 0.05504159f, -0.09671855f, 0.05679041f, -0.07078536f, 0.36064622f, 0.060235392f, -0.07059875f, 0.10342408f, 0.047447212f, 0.101659045f, 0.052296262f, 0.006459631f, -0.002586659f, -0.05484795f, 0.31117213f, -0.18530056f, 0.041087113f, 0.06609212f, 0.03471745f, -0.10491178f, -0.025687473f, -0.015094629f, 0.051992074f, -0.12807412f, 0.20039193f, -0.1488719f, 0.18908204f, -0.0663629f, 0.10796286f, -0.20652921f, -0.09629105f, -0.087729186f, 0.15533027f, -0.056146532f, 0.16209954f, -0.15238112f, 0.13228717f, -0.023408104f, 0.2234268f, -0.064374f, -0.08763119f, -0.05109627f, 0.046182867f, -0.0074564293f, 0.21173981f, -0.13415523f, 0.19316751f, 0.07898085f, 0.032069147f, -0.1545343f, -0.087061524f, 0.01837246f, 0.17867921f, 0.025035037f, 0.13848107f, -0.17968883f, 0.060873073f, 0.14942466f, -0.020338725f, -0.1718408f, -0.08459417f, -0.17207846f, 0.117320046f, 0.07105902f, 0.02092263f, -0.15162045f, 0.07771161f, 0.12980247f, 0.061014026f, -0.10234651f, -0.063988775f, -0.24846454f, 0.119761825f, 0.11218543f, 0.042957135f, -0.124972254f, -0.005444773f, 0.26907086f, 0.16317007f, -0.03359114f, -0.011950633f, -0.4260801f, 0.26644528f, 0.03178454f, -0.007787324f, -0.16701312f, -0.07399731f, 0.52188665f, 0.39089435f, -0.052292317f, 0.061775763f, -0.12155401f, 0.2393736f, -0.09236755f, 0.10631146f, 0.06741761f, -0.6132411f, 0.33548295f, 0.09401735f, 0.14119948f, 0.19715193f, -0.06650417f, 0.5570863f, -0.120302856f, -0.05732052f, -0.18474817f, -0.43159664f, 0.27906436f, 0.1475641f, -0.022082204f, 0.12645255f, 0.2501014f, 0.18640938f, -0.049304046f, -0.20382166f, -0.11994683f, -0.22023337f, 0.015901618f, 0.027333602f, 0.004161708f, 0.08295982f, -0.013919778f, -0.04292496f, 0.0056240335f, -0.06851302f, 0.07954753f, 0.07578022f, -0.24409369f, -0.100357585f, -0.15301615f, -0.06988752f, -0.045627438f, 0.068187274f, -0.11871495f, -0.08142784f, 0.006957511f, 0.16336644f, 0.14814603f, 0.15061969f, -0.20983928f, 0.18214342f, -0.10391471f, 0.23531806f, 0.05069933f, -0.02393719f, -0.16262992f, -0.118143804f, 0.20235603f, 0.042548995f, -0.098440565f, -0.04088855f, -0.2702918f, 0.19664173f, -0.15309024f, -0.21223219f, -0.23543456f, -0.010290106f, 0.034913257f, -0.15791535f, -0.16250254f, 0.089247555f, -0.098568454f, 0.15541539f, -0.047330867f, -0.05937971f, -0.27430698f, -0.007521276f, 0.19763722f, 0.010985175f, -0.20438646f, -0.12810369f, -0.020071216f, 0.011783048f, 0.018346988f, -0.09588075f, -0.36991253f, 0.01723346f, 0.16475481f, -0.05678241f, 0.015613436f, -0.18641819f, 0.0793307f, 0.020369828f, -0.16110559f, 0.13980657f, -0.23269154f, 0.105010785f, 0.09952966f, 0.103074975f, 0.021006497f, -0.017483851f, 0.13781212f, -0.0032700393f, -0.07143561f, 0.077332295f, -0.13222133f, 0.07566361f, 0.020198805f, 0.21415615f, 0.12951523f, -0.04182949f, 0.16159454f, 0.005722701f, -0.12090822f, 0.13189042f, -0.014421801f, 0.031743906f, 0.101628646f, 0.21885727f, 0.18555835f, 0.020613069f, 0.2546454f, 0.020487081f, -0.04091445f, 0.005401516f, -0.03491465f, 0.12845457f, 0.02090977f, 0.27663797f, 0.16244487f, -0.024456928f, 0.29300347f, -0.052129272f, 0.025011245f, 0.07999973f, 0.17402573f, 0.08976773f, 0.1856507f, 0.2369144f, 0.21219228f, 0.03810296f, 0.15793924f, -0.041684203f, 0.04830088f, 0.028717972f, 0.26979658f, -0.13354653f, 0.1704161f, 0.06754992f, 0.26423055f, 0.07917246f, -0.14407757f, 0.21672086f, -0.11903128f, 0.078832515f, 0.18865532f, -0.13570078f, 0.17051806f, -0.001210999f, 0.26970497f, 0.063527256f, -0.20423308f, 0.35315326f, -0.15897688f, 0.12598091f, 0.21108492f, -0.05322621f, -0.036495347f, 0.1439453f, 0.1949698f, -0.089158f, -0.17437485f, 0.22291838f, -0.10890119f, 0.18424824f, 0.22780652f, -0.058278225f, 0.103388935f, 0.14991777f, 0.19992064f, -0.01652476f, -0.17956668f, 0.1295784f, -0.018187037f, 0.29608068f, 0.046207026f, 0.046560157f, 0.0970226f, -0.02632634f, 0.053863797f, -0.09788517f, 0.042691376f, -0.05306851f, -0.0901002f, 0.34675393f, -0.19624011f, 0.045648914f, 0.15275027f, 0.0014559554f, -0.020655097f, -0.07668378f, -0.09346367f, 0.05665475f, 0.007439421f, 0.19438827f, -0.18036835f, 0.066642396f, -0.051337693f, 0.1105157f, -0.12363395f, -0.05593076f, -0.025422724f, 0.038049813f, -0.09274208f, 0.2340443f, -0.20405963f, 0.19067554f, 0.05508586f, 0.17756908f, -0.061595444f, -0.11440585f, -0.0038906382f, 0.080057874f, 0.006297822f, 0.030700825f, -0.052944873f, 0.18686713f, 0.034344014f, 0.066320665f, -0.06652096f, -0.14040922f, -0.058617868f, 0.04584437f, 0.043899372f, 0.09573742f, -0.024713365f, 0.07253292f, 0.044124495f, 0.040864576f, -0.12009397f, -0.08112452f, -0.04552933f, 0.05493549f, -0.06233027f, 0.11915379f, -0.15400635f, 0.1090315f, 0.05520382f, 0.103595264f, -0.15588762f, 0.00046655355f, 0.020122487f, 0.05658178f, 0.030760063f, 0.118829906f, -0.044366814f, 0.1541434f, 0.08683529f, 0.02614176f, 0.051353242f, -0.053813517f, -0.21798894f, 0.10405853f, 0.019374892f, -0.017794963f, -0.07816419f, 0.130768f, 0.081185654f, 0.07925966f, 0.14901276f, 0.01013537f, -0.20989944f, 0.1523586f, 0.017066414f, 0.026000815f, -0.051321477f, -0.018234747f, 0.3032494f, 0.4882015f, -0.1349147f, 0.21121216f, -0.0077455644f, 0.3530693f, 0.08616974f, 0.15082583f, -0.20935167f, -0.6007105f, 0.2169121f, -0.007813698f, -0.009070798f, 0.15104182f, -0.03268672f, 0.40314984f, -0.1424068f, -0.065878175f, -0.3269582f, -0.42598027f, 0.430185f, 0.35264117f, -0.24230805f, 0.2704956f, 0.25178996f, 0.23864357f, 0.00035914636f, -0.19605486f, -0.034084868f, -0.40086362f, 0.17103542f, 0.11339893f, 0.111214034f, 0.09692082f, -0.053848613f, -0.060958214f, -0.012928031f, -0.1854444f, -0.22042939f, -0.11295831f, -0.19746906f, -0.16178443f, -0.08088744f, 0.059039805f, -0.023757618f, 0.15587793f, 0.09278956f, 0.12836847f, -0.017289484f, 0.04471552f, -0.12274285f, -0.0884797f, -0.14472722f, 0.30398992f, -0.14970422f, 0.14251979f, 0.13619763f, 0.0789416f, -0.234113f, 0.13893503f, 0.089430705f, -0.17739773f, -0.2502905f, -0.07498542f, -0.23746991f, 0.26651752f, -0.26721805f, -0.08629785f, -0.19955756f, 0.21343721f, 0.041154627f, 0.06852246f, -0.34285864f, -0.036178857f, -0.010882365f, 0.13985525f, 0.08479693f, 0.014347158f, -0.36711448f, -0.011310735f, 0.2375827f, -0.049431767f, -0.1970735f, -0.16008435f, 0.06760909f, 0.014886956f, 0.15212646f, -0.13741228f, -0.42025408f, 0.110169254f, 0.28429726f, -0.05591771f, -0.014961742f, -0.19111946f, 0.00868363f, -0.00564781f, -0.059376445f, -0.017238315f, -0.2568075f, 0.15396972f, 0.244937f, 0.07582369f, -0.011555885f, -0.13202907f, 0.17237568f, 0.02594884f, -0.016514398f, 0.0014361375f, -0.17524433f, 0.068059035f, 0.052452985f, 0.09407732f, 0.038803138f, -0.08192149f, 0.17740397f, -0.08936262f, -0.11353149f, -0.0011859096f, 0.04704012f, 0.13762736f, 0.038197145f, 0.081509575f, 0.07416793f, -0.035860937f, 0.29029799f, -0.0026807706f, -0.0054525696f, -0.021833971f, 0.09767146f, 0.13467948f, 0.039243698f, 0.21900286f, 0.18906231f, 0.034422636f, 0.33336744f, -0.030495238f, 0.08028067f, -0.10133201f, 0.07491473f, 0.060697548f, 0.06591477f, 0.13865992f, 0.18578982f, 0.10583642f, 0.08184924f, 0.059271466f, -0.055988286f, 0.020984227f, 0.083701886f, -0.031605504f, 0.14943011f, 0.26307532f, 0.1161832f, -0.15957227f, -0.40193328f, 0.13117805f, -0.060852222f, 0.051370397f, 0.15429924f, -0.20946261f, 0.073882036f, 0.04566244f, 0.07847283f, -0.06268459f, -0.3800876f, 0.17644358f, -0.07964396f, 0.16556092f, 0.17396301f, -0.14523555f, -0.032585517f, 0.14135218f, 0.22321582f, -0.05438085f, -0.17844182f, 0.13927196f, -0.0018531124f, 0.09361769f, 0.10663676f, -0.09274553f, 0.052567273f, 0.10713542f, 0.059294708f, -0.06596897f, -0.028163299f, 0.07126689f, -0.08084978f, 0.19902448f, -0.1455898f, 0.10319199f, 0.13900009f, 0.13754089f, -0.025090454f, -0.16693069f, -0.0949031f, -0.0077973604f, -0.041190106f, 0.19682655f, -0.18063004f, 0.06953216f, 0.04255944f, 0.1356031f, -0.18656297f, -0.007949467f, -0.079685055f, -0.0045862375f, -0.10591268f, 0.09672266f, -0.18514366f, 0.13899615f, 0.10333853f, 0.1757319f, -0.028981145f, -0.046718508f, 0.054138254f, 0.040080417f, 0.036657233f, 0.08582282f, -0.13949512f, 0.12477788f, 0.089366764f, 0.14707288f, -0.007604836f, -0.04878742f, -0.029690525f, 0.10446538f, -0.0328234f, 0.051154304f, -0.13683957f, 0.14735113f, 0.034288473f, 0.04745019f, 0.100518204f, -0.036288336f, -0.08444959f, 0.0018289863f, -0.060580842f, 0.08259943f, -0.08541966f, 0.1500068f, 0.0711104f, 0.13079625f, -0.08363394f, -0.0748004f, -0.060749996f, 0.09017807f, -0.032696962f, 0.20137496f, -0.15414801f, 0.1489549f, 0.19009133f, 0.08467535f, -0.07900151f, 0.07887023f, 0.0791193f, 0.15505913f, -0.0029279399f, -0.03425747f, -0.028455703f, 0.10884533f, 0.22976014f, 0.10074286f, -0.016874578f, -0.062212486f, 0.0046525593f, 0.17466494f, -0.046684016f, -0.0683301f, -0.12915772f, 0.0441378f, 0.2758905f, 0.23870559f, 0.14697859f, -0.057182062f, -0.006277056f, 0.05771631f, 0.0021636765f, 0.10055074f, -0.02322375f, -0.17618273f, 0.35630095f, 0.33339873f, -0.16628279f, 0.13588497f, 0.0056083607f, 0.3049956f, 0.12450977f, 0.13160501f, -0.02010759f, -0.26849058f, -0.085411794f, -0.21356319f, 0.16463953f, 0.063387714f, 0.01930894f, 0.42747223f, 0.037266385f, 0.21708508f, -0.11887865f, -0.19979385f, 0.023611432f, 0.08886802f, -0.1462853f, 0.056205332f, 0.26651874f, 0.25173116f, -0.07389512f, -0.03306318f, 0.099803f, -0.2451927f, -0.012840144f, 0.012569569f, 0.07208253f, 0.03842052f, -0.050900284f, -0.017794915f, -0.024766043f, 0.054265045f, 0.07076941f, -0.05328776f, -0.13881324f, -0.062930375f, -0.13355608f, -0.17199658f, 0.18919174f, -0.13980035f, -0.010026853f, 0.051966876f, -0.018995004f, 0.08907106f, -0.05478407f, 0.035091307f, -0.20632687f, 0.13880478f, -0.17224178f, -0.2225587f, 0.3099612f, 0.13986436f, -0.2514782f, -0.00603409f, -0.085072175f, -0.0064474237f, -0.27547678f, 0.06828087f, -0.17937936f, 0.100798726f, -0.22654074f, 0.11187516f, -0.20912224f, 0.22699043f, 0.10623034f, 0.083569326f, -0.20610543f, 0.017426997f, -0.06500618f, 0.17666574f, 0.04713314f, 0.20842305f, -0.2955322f, -0.070350945f, 0.211079f, -0.058768936f, -0.076051354f, -0.118590534f, 0.10646219f, -0.05330872f, 0.06216273f, 0.05619487f, -0.36471057f, 0.10956262f, 0.22028543f, -0.017909475f, -0.08876408f, -0.20347902f, 0.029831523f, 0.0065597217f, 0.08990636f, -0.0066660596f, -0.32431817f, 0.14098597f, 0.25150332f, -0.020936746f, -0.09432449f, -0.027687527f, 0.12838317f, 0.004804668f, -0.015609855f, -0.07278846f, -0.20429906f, 0.13051622f, 0.11313657f, 0.15473016f, -0.038398355f, 0.011910109f, 0.18142474f, 0.05451217f, 0.014328437f, -0.07566938f, -0.0058393623f, 0.14362948f, 0.01653741f, 0.10023698f, -0.08287142f, -0.04510499f, 0.3016682f, 0.0318884f, -0.05082242f, -0.2273756f, 0.06531487f, 0.1386935f, 0.14001925f, 0.15574902f, 0.036250845f, 0.03328226f, 0.28614035f, -0.0424825f, 0.06646643f, -0.09232101f, 0.22366051f, -0.03252467f, 0.06322109f, 0.30930158f, -0.062972166f, -0.04357211f, -0.16455598f, 0.054692503f, 0.014941688f, -0.102997564f, 0.31290132f, -0.10781314f, 0.09365643f, 0.19616023f, -0.010918825f, -0.0666911f, -0.32042024f, -0.05029803f, 0.025196811f, -0.10487727f, 0.154809f, -0.13487718f, 0.034814004f, 0.17407432f, -0.012803816f, 0.0067665516f, -0.27296788f, 0.13118942f, -0.028329007f, -0.038072214f, 0.16510935f, -0.0079998085f, -0.05853441f, 0.24788013f, -0.012111322f, -0.026370136f, -0.13025819f, 0.08551588f, 0.0089041535f, 0.121975005f, 0.058948874f, 0.11442737f, 0.14090513f, 0.2275272f, 0.018822772f, -0.20178817f, -0.006555748f, 0.16233484f, 0.010384446f, 0.04121097f, 0.07807608f, 0.10457105f, 0.06682776f, 0.17673436f, -0.08967214f, -0.07345899f, -0.08793389f, 0.13125876f, -0.07754095f, 0.022780007f, -0.07740309f, 0.03751488f, 0.12877828f, 0.14232236f, -0.11017662f, -0.042728428f, -0.034332674f, 0.16007188f, 0.0007308258f, 0.09925326f, -0.043189164f, 0.07308935f, 0.1492852f, 0.12808394f, -0.1409031f, -0.024727007f, 0.034378875f, 0.031619586f, -0.0919614f, -0.01342551f, -0.029237079f, 0.20223239f, 0.063534595f, 0.18548091f, 0.013042728f, 0.075074755f, 0.0047380184f, 0.12646928f, -0.0005635143f, -0.042664256f, -0.07284747f, 0.1764751f, 0.06884069f, 0.14207359f, 0.03285598f, 0.011623736f, 0.02610253f, 0.065995716f, -0.027098574f, 0.022340398f, -0.11939054f, 0.15470083f, 0.14348231f, 0.22072048f, -0.005565144f, -0.010778093f, 0.09120032f, 0.081683815f, 0.07207566f, 0.04747723f, -0.016204653f, 0.22544324f, 0.29226342f, 0.16524845f, 0.04575642f, -0.096466236f, 0.115250595f, 0.1616564f, 0.011982191f, -0.2234887f, -0.07069821f, 0.17397436f, 0.3511678f, 0.25813487f, 0.17641212f, -0.002391677f, 0.057211597f, 0.067660876f, 0.010909872f, -0.2728736f, 0.008787874f, -0.093348555f, 0.009288313f, 0.17186548f, 0.058251366f, -0.10805119f, -0.06273053f, 0.1650179f, 0.03931668f, -0.0061312886f, 0.06128261f, -0.066926844f, 0.3029084f, 0.07367307f, -0.078784965f, 0.06431991f, -0.061792064f, 0.5337196f, -0.0008090774f, -0.106320985f, -0.05375486f, -0.34538764f, 0.13499862f, -0.074657336f, 0.03131162f, -0.02328517f, 0.05144494f, 0.39976037f, 0.16183253f, -0.026166009f, 0.03770197f, -0.08966292f, -0.1254343f, -0.054616712f, -0.23094147f, -0.29473543f, 0.094762124f, 0.1914115f, -0.17095591f, 0.20160446f, 0.26991677f, -0.14267637f, 0.08601981f, 0.014581278f, -0.06767028f, 0.0403203f, 0.007420376f, -0.024301708f, -0.08134008f, 0.05728907f, -0.043911327f, 0.044430085f, -0.14524008f, -0.13138619f, -0.1289059f, -0.09145443f, 0.07092729f, -0.12255214f, -0.019163445f, -0.057463963f, -0.055266265f, 0.21160537f, 0.17797531f, 0.046537913f, -0.10895643f, 0.026738798f, 0.1899841f, -0.2046361f, 0.278699f, 0.12293471f, -0.043510277f, 0.037803907f, 0.15929703f, 0.021829281f, -0.24655753f, 0.1487494f, 0.022522464f, 0.08373066f, -0.10810173f, 0.032995798f, -0.39454636f, 0.044240344f, 0.12955943f, 0.14110187f, -0.27977756f, 0.1177286f, -0.033703975f, 0.18921924f, 0.05635149f, 0.01590028f, -0.31322923f, -0.068995126f, 0.25066686f, -0.023784546f, -0.18812679f, 0.0043221842f, 0.05179864f, 0.04310805f, 0.046099365f, -0.02981599f, -0.28972244f, 0.108330354f, 0.13961014f, -0.125555f, -0.057855837f, -0.134537f, 0.06913145f, 0.16846217f, -0.05146363f, -0.057474386f, -0.28991666f, 0.12451963f, 0.280621f, 0.1130531f, -0.09207407f, -0.09597062f, 0.2658731f, 0.18558395f, -0.02543253f, -0.17471671f, -0.12654991f, 0.049355775f, 0.14609079f, 0.06556582f, -0.045501407f, -0.03599678f, 0.14386955f, 0.1175466f, -0.041743286f, -0.07381595f, -0.040598385f, 0.20883623f, 0.11156319f, 0.077467754f, -0.14222594f, 0.03945154f, 0.13959058f, 0.12072336f, 0.068936236f, -0.20991166f, -0.0045304555f, 0.20036286f, 0.087296374f, 0.124903925f, -0.0024374304f, -0.015692879f, 0.31047505f, 0.17384997f, 0.11659554f, -0.1741175f, 0.17841923f, 0.05756506f, 0.020724999f, 0.2206821f, -0.059135024f, -0.076001056f, -0.14565885f, 0.0955233f, 0.18561351f, -0.13315389f, 0.22020347f, -0.058212835f, 0.10304011f, 0.21644135f, -0.10111785f, -0.048760876f, -0.19826798f, -0.065019734f, 0.23971416f, 0.0518381f, 0.1508183f, 0.010470882f, 0.03926023f, 0.054355677f, -0.060961194f, 0.008082999f, -0.09091547f, 0.03928366f, 0.14749676f, -0.13045354f, 0.020856924f, 0.07507979f, 0.046316292f, 0.1446123f, -0.14909083f, -0.044563435f, -0.072257206f, -0.03132551f, 0.07168165f, 0.05251033f, 0.12506083f, 0.094991244f, 0.08444775f, 0.09581179f, -0.058967385f, -0.005018211f, -0.039701205f, 0.0957373f, -0.014572871f, 0.07033693f, 0.21290189f, 0.17479403f, 0.09474288f, 0.15912034f, -0.10982311f, 0.029150775f, -0.12284755f, 0.14451456f, -0.027801832f, 0.036555275f, 0.08719462f, 0.15327792f, 0.060899906f, 0.094560385f, -0.062762514f, 0.013050945f, -0.032748505f, 0.14602286f, -0.0045822617f, -0.039064847f, 0.08610107f, 0.16064578f, 0.1625342f, 0.14389604f, -0.09714209f, -0.040153455f, 0.015969392f, 0.1752681f, 0.006504008f, -0.012574221f, 0.058881976f, 0.172231f, 0.22276846f, 0.049470685f, -0.021787418f, 0.07399678f, -0.084021315f, 0.082918964f, -0.022468241f, -0.10670738f, -0.05584333f, 0.065023914f, 0.1556293f, 0.11938398f, 0.058585975f, -0.04768372f, 0.0339717f, 0.12308833f, -0.007235114f, -0.1352097f, -0.0017264576f, 0.15774629f, 0.25840586f, 0.026908223f, 0.065524004f, -0.0736399f, 0.060859896f, 0.17696561f, 0.054994762f, -0.072941765f, 0.0018660426f, 0.053074915f, 0.18938492f, 0.03914651f, 0.03922091f, -0.17282377f, -0.04903443f, 0.02809558f, -0.008130063f, -0.26022533f, -0.022985326f, 0.1398717f, 0.32410464f, 0.019840712f, 0.0704534f, -0.08048058f, -0.037862767f, 0.08854599f, -0.051092234f, -0.34501907f, -0.09868007f, 0.057613563f, 0.025436467f, -0.0053268117f, 0.181171f, 0.16205716f, -0.12286247f, 0.24206111f, 0.00484567f, -0.01670184f, -0.101376824f, -0.1593171f, 0.07217762f, -0.0025375127f, 0.18255678f, 0.08317349f, -0.13535699f, 0.39521503f, -0.09858589f, -0.05302997f, -0.10977164f, -0.23606585f, -0.06168943f, -0.04290891f, -0.07761185f, -0.04292276f, -0.09536899f, 0.43348202f, 0.2360658f, 0.10657822f, 0.031797927f, 0.03562915f, -0.1673603f, -0.040591884f, 0.0343046f, 0.02222784f, 0.052676864f, 0.015792474f, 0.12096303f, -0.10893821f, -0.033745054f, 0.070205115f, -0.18060175f, -0.09986217f, -0.09435718f, -0.22004631f, 0.0030272305f, 0.0897589f, 0.009293072f, 0.17871444f, 0.17056142f, 0.14766963f, -0.008918557f, -0.086633f, -0.026887285f, -0.063035995f, 0.038495842f, 0.08453262f, 0.040226355f, 0.11624074f, -0.011489077f, -0.0011497347f, 0.2170808f, 0.09580656f, -0.15723005f, 0.15908389f, 0.26699802f, 0.14533456f, 0.11572079f, 0.0313586f, -0.17979436f, -0.047619946f, 0.12951986f, 0.013441332f, -0.30475277f, -0.08918433f, 0.005707948f, 0.1813723f, -0.12582123f, -0.10244533f, -0.09890806f, 0.17914899f, 0.19727422f, 0.11816074f, -0.13367948f, -0.058720693f, -0.17669022f, 0.14596188f, -0.0070521985f, -0.03257956f, -0.30930784f, 0.14326997f, -0.041036304f, -0.0019427014f, -0.13442716f, -0.13031065f, 0.11235767f, 0.15367611f, 0.0045730807f, -0.08350041f, -0.1727241f, 0.11951754f, 0.16141692f, -0.051059157f, -0.05586913f, -0.017951002f, 0.1934073f, 0.200944f, -0.03602513f, -0.20212764f, -0.10266517f, 0.12673742f, 0.15573126f, 0.05741003f, -0.051919296f, -0.11847236f, 0.13497433f, 0.14861846f, 0.067709185f, -0.28223407f, -0.06719069f, 0.16240026f, 0.050844774f, -0.0038244906f, -0.06743209f, -0.113410205f, -0.020487778f, 0.047151722f, 0.042894017f, -0.11363063f, -0.033507258f, 0.12486408f, 0.101664044f, 0.08850304f, -0.046440728f, -0.049909856f, 0.15711187f, 0.018696908f, 0.011299887f, -0.090930335f, 0.20409532f, 0.05664171f, 0.08193235f, 0.16333029f, -0.0016328071f, 0.00214436f, 0.0044541922f, 0.11821061f, 0.18667874f, -0.056780983f, 0.025948333f, 0.10970745f, 0.1314413f, 0.05249345f, -0.025267772f, -0.08582713f, 0.06412322f, -0.036333933f, 0.3164076f, -0.08025357f, 0.11895184f, 0.05521286f, 0.00059356255f, 0.15425967f, -0.015971495f, 0.08514504f, -0.15873472f, 0.0313345f, 0.20589551f, -0.05403761f, 0.1810512f, 0.073028184f, 0.14148268f, 0.10570934f, -0.108214036f, 0.13127714f, -0.103844576f, -0.10384324f, 0.20248365f, -0.07128414f, 0.30183452f, 0.1586411f, 0.13792026f, 0.03185807f, -0.11631484f, 0.014686423f, -0.065249704f, 0.016022809f, 0.16830657f, -0.06968545f, 0.18484487f, 0.2218132f, 0.074131966f, -0.012548137f, -0.08792615f, 0.0073856898f, -0.0913785f, -0.015803128f, 0.0732602f, -0.016740242f, 0.12596627f, 0.16389355f, 0.15267241f, 0.04063962f, -0.107145704f, 0.036800742f, -0.010669422f, 0.09920474f, 0.106307f, 0.04255497f, 0.05438009f, 0.14164166f, 0.19142357f, -0.0031961577f, -0.14063305f, -0.123579994f, -0.08427591f, 0.020719472f, 0.057479367f, -0.0502926f, 0.16949712f, 0.0033450837f, 0.21213011f, 0.056793056f, -0.0388775f, -0.09609399f, -0.06943256f, 0.10412895f, 0.04819668f, -0.13088913f, 0.059402637f, 0.03963469f, 0.18178433f, 0.01791585f, -0.044757094f, -0.028527133f, -0.00023854512f, 0.123094015f, 0.10910177f, -0.058589425f, -0.017378401f, 0.027703306f, 0.1885487f, -0.00022114706f, 0.13058457f, -0.022489844f, -0.0638149f, 0.18976215f, 0.17366068f, -0.05933373f, 0.056059588f, 0.13348536f, 0.18772705f, -0.044074435f, 0.04061349f, -0.16131815f, 0.060409233f, 0.06747807f, 0.113959216f, -0.16720413f, 0.05965744f, 0.1636139f, 0.28905663f, 0.046107415f, 0.07938825f, -0.35521013f, 0.17050104f, 0.091149576f, 0.111130476f, -0.17298451f, 0.030914735f, 0.13810973f, 0.35540545f, 0.12219164f, -0.06217708f, -0.23521025f, -0.1322106f, 0.13093992f, 0.12876427f, -0.17418428f, -0.055927295f, -0.06961199f, 0.042894315f, 0.12775137f, 0.18474562f, 0.13008091f, -0.11741205f, 0.3061667f, 0.02460124f, -0.028660573f, -0.08151475f, -0.39102626f, 0.16403404f, 0.132477f, -0.13350387f, -0.10542922f, -0.049321696f, 0.38195914f, 0.2576773f, -0.019767495f, 0.116071224f, -0.4045024f, 0.22228624f, 0.32967708f, -0.22259738f, -0.22825895f, 0.26025772f, 0.14042687f, 0.18705201f, -0.02771017f, -0.13262974f, -0.17062975f, -0.0057656765f, -0.023116654f, -0.046196703f, -0.03605233f, 0.08845688f, -0.020254947f, 0.07698913f, 0.057253383f, -0.074053206f, -0.054040547f, -0.15467127f, -0.08957926f, -0.20079105f, -0.08276947f, 0.0037801266f, 0.23761494f, 0.06775985f, 0.102328576f, 0.09821802f, 0.014745617f, -0.14944836f, 0.057461858f, -0.115897045f, 0.03966654f, -0.1088328f, -0.016676098f, -0.051741336f, -0.031332955f, 0.14613582f, 0.040796593f, 0.13279767f, 0.018243562f, -0.3624456f, 0.033960715f, 0.17969403f, 0.099132195f, 0.06582618f, -0.0058032763f, -0.035641342f, -0.04687159f, 0.3032209f, 0.1399261f, -0.23138252f, 0.04163367f, 0.2033192f, 0.27850863f, -0.23966712f, -0.15497597f, -0.0017103258f, -0.012872787f, 0.19794281f, 0.170371f, 0.0011078438f, -0.13184063f, -0.10006907f, 0.2896719f, -0.16113394f, -0.20173115f, -0.05145413f, -0.023447538f, -0.101274535f, 0.10421793f, -0.089154f, -0.24488042f, 0.12884201f, 0.29375407f, 0.09019632f, -0.14291552f, -0.010155082f, 0.023794757f, 0.11825412f, -0.1812887f, -0.020576652f, -0.014715539f, 0.2769521f, 0.20397253f, 0.08027978f, -0.2016609f, -0.18812267f, 0.051941954f, 0.15129949f, -0.109659195f, 0.014610787f, -0.00921269f, 0.12937413f, 0.2099799f, 0.06889029f, -0.0005991387f, -0.2119969f, -0.03531333f, 0.0010806206f, 0.071354166f, -0.04322571f, 0.013989178f, 0.082484804f, 0.10635845f, 0.14921802f, -0.051987093f, 0.0013296858f, -0.03520014f, 0.10237896f, 0.046911884f, -0.017046971f, -0.054446917f, 0.1529775f, 0.12603445f, 0.13180548f, 0.000598606f, -0.05867232f, 0.073031895f, 0.0871055f, 0.062049758f, 0.045419596f, 0.023908788f, 0.08036534f, 0.0059489985f, 0.06772436f, -0.022817018f, 0.010889063f, 0.073558144f, 0.23020948f, -0.07333796f, 0.03553435f, 0.06561255f, 0.06013851f, -0.111194104f, 0.13939391f, -0.06875543f, 0.007814981f, 0.13063726f, 0.18652381f, -0.0010189489f, 0.04344123f, 0.08344223f, 0.045692056f, -0.13919188f, 0.10886265f, 0.029935172f, 0.12587523f, 0.17459221f, 0.23133531f, 0.017804384f, 0.03725506f, 0.054191396f, -0.07930536f, -0.13430415f, 0.23417115f, -0.1427688f, 0.08340714f, 0.14295231f, 0.07440928f, -0.0070015737f, 0.018684596f, 0.22337413f, -0.090170145f, -0.0096666245f, 0.12284826f, -0.17027555f, 0.13995826f, 0.084933884f, 0.09707926f, -0.009251271f, -0.033758882f, 0.071665294f, -0.096474074f, -0.040770877f, 0.24668983f, -0.06536883f, 0.12686183f, 0.22123903f, 0.11613469f, -0.041421875f, 0.0024506499f, 0.04576398f, -0.0814985f, 0.06515704f, 0.08560914f, -0.07204457f, 0.18406166f, 0.09647912f, 0.07090593f, -0.10612702f, -0.058645766f, -0.014114965f, -0.13341206f, 0.109218724f, 0.11246878f, -0.08892501f, 0.15299222f, 0.10657606f, 0.22286049f, -0.10433378f, -0.13998857f, -0.027370337f, -0.028651735f, 0.08017826f, 0.05553295f, -0.0008133984f, 0.16190091f, 0.1550493f, 0.14142168f, -0.0894464f, -0.051987387f, -0.1990545f, -0.068343006f, 0.24750021f, 0.076599196f, -0.01513358f, 0.15104593f, 0.049247585f, 0.13234764f, -0.12867281f, -0.041525736f, -0.123528466f, 0.030505164f, 0.15884449f, 0.11277859f, -0.10579509f, 0.0323864f, 0.050836585f, 0.18515387f, -0.018705416f, -0.011553458f, -0.18949705f, -0.013333961f, 0.050208334f, 0.17693354f, 0.004806037f, 0.122983046f, -0.017313732f, 0.25618502f, -0.025749883f, 0.030056393f, -0.10214012f, 0.045324475f, 0.05759528f, 0.16615231f, 0.03290508f, -0.039296743f, 0.04601525f, 0.17369552f, -0.031185454f, 0.090782635f, -0.099005684f, -0.1105144f, -0.09500966f, -0.008460517f, -0.15044962f, -0.16688116f, -0.041867472f, 0.067713596f, -0.025473908f, 0.33892688f, 0.22958426f, -0.28669414f, 0.074939996f, -0.121077344f, -0.114985384f, -0.05652815f, -0.2173852f, 0.17950328f, 0.03639066f, 0.071864456f, 0.13262847f, -0.16785267f, 0.23578088f, 0.19088987f, -0.13119622f, 0.11654319f, -0.2581149f, -0.13476141f, 0.07338106f, -0.27949682f, -0.18870749f, 0.2057969f, 0.2360935f, 0.098381795f, 0.04543976f, -0.024813749f, 0.05274116f, -0.036267515f, -0.009057469f, 0.023575643f, -0.05430664f, 0.0849546f, 0.05515913f, -0.0584015f, -0.08360234f, -0.07029466f, 0.029440513f, -0.03527813f, 0.06752201f, -0.053827327f, 0.079524286f, 0.02404625f, -0.015813217f, -0.028296243f, 0.06698816f, -0.011948079f, -0.06120468f, 0.059599407f, -0.035039518f, -0.001569666f, 0.0131367445f, 0.012399644f, 0.020680234f, -0.050890356f, -0.059009932f, 0.034379207f, 0.06249688f, 0.13811408f, -0.06746264f, -0.25197878f, -0.037747223f, 0.013423341f, 0.026700264f, -0.017295772f, -0.09084283f, -0.07177806f, 0.2270172f, 0.3330749f, 0.016467042f, -0.33201438f, 0.11862329f, -0.101797126f, -0.16303755f, -0.13758878f, -0.46673673f, -0.32536957f, 0.20757234f, 0.06835627f, -0.062948294f, -0.1246898f, -0.08626062f, -0.21037376f, 0.2025202f, -0.054120064f, -0.3533064f, -0.22708558f, 0.1335159f, -0.054050703f, -0.0652685f, -0.14702116f, -0.122489505f, 0.0367696f, 0.23063067f, 0.026763635f, -0.12653793f, -0.13422734f, 0.06335131f, -0.10252763f, 0.04685971f, 0.0033923653f, -0.12686217f, 0.13305986f, 0.2197054f, 0.1745777f, -0.058054864f, -0.13087472f, 0.029493969f, -0.12011099f, -0.118353724f, -0.00016329097f, 0.023439683f, 0.09399867f, 0.081518464f, 0.06829489f, 0.08808735f, -0.1589779f, 0.1060276f, 0.13249484f, -0.046911336f, 0.06475814f, -0.010791509f, 0.100410484f, -0.055832963f, -0.058079556f, 0.007998699f, -0.09027676f, 0.16537677f, 0.008476122f, -0.044094868f, -0.016782718f, -0.031849727f, 0.118874215f, -0.015636927f, 0.11982405f, -0.02741492f, 0.0068942853f, 0.15058069f, 0.10232548f, -0.1387206f, -0.07135784f, 0.0046820757f, 0.16375339f, -0.00012736054f, 0.06859592f, -0.06562588f, 0.009537515f, 0.21590218f, 0.06651222f, -0.0654541f, -0.029104574f, -0.06375314f, 0.09597059f, -0.044186156f, 0.052723497f, 0.024321016f, -0.07565015f, 0.216404f, 0.14307494f, -0.10468251f, 0.08216378f, -0.0008702703f, 0.06751358f, 0.06021375f, 0.1880728f, -0.052904997f, 0.040774725f, 0.12382266f, 0.1031065f, -0.11308049f, 0.103559434f, 0.044835296f, -0.006261104f, 0.01015951f, 0.11262456f, 0.033867355f, 0.13966419f, 0.18452972f, 0.17358847f, -0.05588059f, 0.07707402f, -0.021644184f, 0.03230353f, -0.0983459f, 0.19646065f, -0.008267192f, 0.16017388f, 0.12427952f, 0.094295226f, -0.1377911f, 0.020753596f, -0.016694132f, -0.06438496f, 0.07262386f, 0.10128245f, -0.06897852f, 0.16840081f, 0.203864f, 0.113754645f, -0.17156002f, 0.0051233848f, -0.041053753f, -0.10694472f, 0.008290095f, 0.1308128f, -0.08698114f, 0.25964585f, 0.15303922f, 0.11416259f, -0.17359258f, 0.040739756f, 0.03729036f, -0.07389339f, 0.0872217f, 0.09251485f, 0.026032727f, 0.1826462f, 0.05315674f, 0.17546639f, -0.09732786f, -0.087053955f, -0.04370507f, -0.13326819f, 0.08851623f, 0.02545984f, 0.021040399f, 0.1538526f, 0.017145438f, 0.26704875f, -0.076038904f, -0.07995769f, -0.025941208f, -0.10353021f, 0.12917586f, 0.027546424f, -0.011525018f, 0.23565815f, -0.08127332f, 0.20572776f, -0.110960886f, -0.020193018f, -0.24577071f, -0.03672779f, 0.007847275f, -0.13560142f, 0.054318562f, 0.10559205f, -0.0016207494f, 0.21070607f, 0.037622426f, 0.015006859f, -0.056468938f, -0.05654653f, -0.0020128693f, 0.022943731f, 0.08616812f, 0.02784083f, -0.14390713f, 0.31316498f, 0.08250357f, 0.031819228f, 0.024531871f, -0.036387164f, -0.058698934f, 0.05121171f, 0.0342704f, -0.18389925f, -0.18436971f, 0.34085366f, -0.045772087f, 0.21209154f, -0.08102176f, -0.3074244f, -0.1531159f, -0.096557125f, -0.13028212f, -0.086270005f, 0.06861631f, 0.07677333f, -0.011251431f, 0.055337604f, 0.10316441f, -0.16761325f, -0.021779561f, -0.30590716f, -0.18663335f, -0.16201107f, -0.090413705f, 0.25633058f, 0.12992495f, 0.081477635f, 0.07989157f, -0.10248827f, 0.018877137f, -0.09474192f, 0.0737043f, -0.02928091f, -0.14179459f, -0.110297054f, 0.02570282f, -0.20511974f, -0.2767347f, -0.14371471f, 0.22290881f, -0.15627608f, 0.04697415f, 0.22213142f, 0.021753756f, 0.05069875f, 0.030132897f, -0.053277977f, 0.026337534f, 0.056249313f, 0.059840985f, 0.027530245f, 0.039438672f, -0.049773708f, -0.059645355f, 0.013241723f, -0.0028425232f, -0.036690388f, 0.0446698f, 0.008164033f, 0.064436935f, 0.014874414f, -0.03814779f, -0.04063659f, 0.046096586f, -0.049517103f, 0.027072273f, -0.06285012f, -0.053937547f, 0.046039157f, 0.010810703f, 0.086759545f, -0.0071863085f, -0.078805394f, 0.08116064f, -0.044670027f, -0.11629964f, 0.08866473f, 0.04033312f, -0.031017892f, 0.03431121f, 0.03624921f, -0.01319139f, 0.035572115f, 0.03753194f, -0.07959875f, -0.2659531f, -0.35470527f, 0.023361323f, -0.12135237f, -0.005514305f, 0.039358165f, -0.059756882f, -0.23452638f, 0.44482183f, -0.120463274f, -0.13220719f, -0.25298655f, 0.12819254f, -0.03213125f, -0.052170772f, 0.12496145f, -0.07515023f, -0.38982895f, 0.5332901f, -0.24362713f, -0.12443817f, -0.09945154f, 0.1459902f, -0.031912617f, 0.09217653f, 0.16237833f, 0.15276948f, -0.30498636f, 0.23922785f, -0.2222264f, -0.11229156f, -0.099485025f, 0.06946725f, 0.03338733f, 0.10142591f, 0.15873162f, 0.033221535f, -0.2760739f, 0.21754691f, -0.082890436f, -0.13169949f, 0.03704229f, 0.113818124f, 0.034709495f, 0.03543052f, 0.061049473f, -0.013917831f, -0.17718059f, 0.16709475f, -0.1113635f, -0.07383145f, 0.05910388f, 0.10630188f, 0.08620331f, -0.06510076f, -0.06728645f, 0.010389618f, -0.05926483f, 0.11287261f, 0.018397866f, -0.091652356f, -0.07743413f, 0.059621416f, 0.11567581f, 0.050367564f, -0.008405813f, -0.013785826f, 0.040167242f, 0.27152f, 0.06587357f, -0.1736845f, -0.06374737f, 0.08786742f, 0.048077483f, 0.04846538f, -0.031202385f, 0.02763019f, 0.046191566f, 0.18368386f, 0.071206465f, -0.24902496f, -0.0044795517f, -0.011400256f, 0.04642019f, 0.07064879f, -0.04637159f, -0.0044322154f, -0.03918031f, 0.1978659f, 0.14813745f, -0.3049469f, 0.045396645f, -0.11642481f, 0.10606898f, 0.0397474f, 0.05325383f, -0.051475234f, 0.058898214f, 0.1081607f, 0.14213364f, -0.37431753f, -0.013061068f, -0.020138675f, 0.09430873f, 0.031787977f, 0.071937226f, -0.031352896f, -0.057632603f, 0.29597464f, 0.27041617f, -0.4517038f, -0.06912722f, -0.0027813232f, -0.12268888f, 0.06663025f, 0.17500041f, 0.012413423f, 0.05406819f, 0.2263838f, 0.15009433f, -0.20998831f, 0.075681895f, -0.055518262f, 0.00840201f, 0.050523132f, -0.004970784f, -0.0410942f, 0.00088548934f, 0.1438798f, 0.15488015f, -0.31055447f, -0.057134494f, 0.036531497f, -0.024252001f, -0.10738562f, 0.020469338f, -0.015234218f, 0.10382866f, 0.1367613f, 0.13226506f, -0.15321545f, -0.044639513f, 0.079872176f, -0.1536975f, -0.0056379964f, 0.14612891f, -0.02497279f, -0.20601854f, 0.103209116f, 0.18275614f, -0.13547239f, 0.013497374f, -0.095071614f, -0.24934341f, -0.123230495f, -0.011003478f, -0.045271464f, 0.046248887f, 0.028430657f, 0.20736866f, -0.13485397f, 0.102642834f, -0.047866307f, -0.22444543f, -0.13765879f, -0.02574935f, 0.03024956f, 0.16597866f, -0.04598491f, 0.10105977f, -0.10395977f, 0.025922189f, 0.07063168f, -0.25532037f, -0.15620983f, -0.0982469f, 0.015500459f, -0.12726642f, -0.028305847f, 0.025784008f, 0.05468346f, -0.001808402f, 0.1392058f, -0.28555077f, 0.019026648f, -0.05720613f, 0.12810771f, -0.1284499f, 0.05323386f, -0.06602297f, -0.061573263f, -0.09270055f, 0.113439836f, -0.3259949f, -0.097050026f, -0.13700232f, 0.13355942f, -0.11384643f, 0.030153256f, 0.12118703f, -0.022612026f, 0.19201465f, 0.120865315f, -0.25275025f, -0.30002454f, -0.31367114f, -0.044309407f, -0.21143234f, 0.10939982f, 0.17202404f, 0.21464053f, -0.20604247f, 0.0094298255f, -0.22578448f, 0.17663252f, 0.063647114f, -0.07934546f, -0.24093692f, -0.08302833f, 0.11470621f, 0.16269092f, -0.24217628f, -0.14749347f, 0.0967787f, 0.21813779f, -0.0028923354f, 0.19817217f, 0.09074467f, -0.2955961f, 0.1083951f, 0.14409713f, -0.24633594f, -0.17189032f, 0.15653175f, 0.15952186f, 0.07756633f, 0.21253677f, -0.12327569f, -0.121962674f, -0.08227029f, 0.0036817193f, -0.03057238f, 0.0080334395f, 0.06101177f, 0.00023341179f, -0.0059243664f, -0.038636245f, 0.03558168f, 0.020717688f, -0.045188144f, -0.008236237f, -0.07658397f, 0.07786616f, 0.032331005f, -0.011936031f, -0.059815884f, -0.017724752f, -0.083915316f, 0.035657823f, -0.012884684f, 0.03673978f, 0.043995418f, -0.046670247f, 0.02303911f, -0.06535643f, 0.043756522f, 0.0024279952f, -0.042097926f, 0.03515148f, 0.14703079f, -0.027236579f, 0.010124758f, 0.09417203f, -0.043890957f, -0.14589891f, -0.21985789f, -0.18702394f, -0.048225984f, 0.15613113f, -0.21041f, -0.031849746f, 0.16777483f, -0.0799129f, -0.14727965f, -0.15627785f, 0.17905296f, 0.17110673f, 0.002986062f, 0.108945414f, -0.2510104f, 0.028767131f, -0.016528187f, 0.14304683f, -0.08727561f, -0.12782514f, 0.26578832f, 0.17398289f, -0.30903137f, 0.13159063f, -0.071323596f, -0.10978217f, -0.14423645f, 0.4086783f, -0.10218795f, -0.24896449f, 0.08580684f, 0.0009371573f, -0.428178f, 0.16206492f, -0.08505978f, -0.1597987f, -0.22041635f, 0.32616326f, -0.15258127f, -0.03076866f, 0.052629482f, -0.11931802f, -0.28933263f, 0.09597032f, -0.1455545f, -0.12368174f, -0.04331385f, 0.36885196f, -0.05864289f, -0.15625967f, 0.09112121f, 0.018802933f, -0.15324825f, 0.17276014f, -0.10038465f, 0.012525663f, -0.1201034f, 0.369767f, -0.093885f, 0.00036033907f, 0.07361275f, -0.129572f, -0.24551359f, 0.28439784f, -0.11913376f, -0.048212823f, 0.0067477496f, 0.14464653f, -0.11951223f, 0.0585076f, 0.03924143f, -0.03778488f, -0.2405158f, 0.30992144f, -0.023016071f, -0.1130175f, 0.11827523f, 0.16571179f, -0.067481965f, -0.12419079f, 0.006522329f, -0.07490473f, -0.091666915f, 0.23074515f, -0.13636465f, -0.06877163f, 0.16825382f, 0.16119723f, -0.054509252f, 0.06490037f, 0.05818753f, -0.08383452f, -0.15351474f, 0.27785102f, -0.109150775f, -0.13385424f, 0.06742618f, 0.16808848f, -0.08787639f, 0.050272677f, 0.029342128f, -0.10602384f, -0.24167694f, 0.26490456f, -0.11190243f, -0.108869635f, 0.14617853f, 0.12153029f, 0.024523735f, 0.01552212f, 0.07690647f, -0.05645728f, -0.25814503f, 0.33433527f, -0.04045492f, -0.091205485f, 0.17204492f, 0.10302218f, -0.10646517f, -0.06641946f, 0.08225169f, 0.0188726f, -0.2785669f, 0.088985145f, -0.04935934f, -0.18669368f, 0.21129552f, 0.1105584f, -0.13718541f, -0.13465175f, 0.1571297f, -0.08546011f, -0.11864377f, 0.089704186f, -0.0021190175f, -0.1779008f, 0.18016127f, 0.18176605f, -0.16199958f, -0.124739304f, 0.022780767f, -0.07473807f, -0.23698714f, 0.25887388f, 0.08174222f, -0.29991198f, 0.16328804f, 0.042738903f, -0.36852187f, -0.27348837f, 0.13599066f, -0.14512631f, -0.3034798f, 0.10905962f, -0.05054507f, -0.23792323f, 0.0928899f, 0.16617069f, -0.45192528f, -0.26119548f, 0.14133671f, -0.10889976f, -0.27491933f, 0.18665032f, 0.028527558f, -0.2067293f, 0.05317424f, 0.3425007f, -0.43871477f, -0.29488078f, 0.014627052f, -0.09826156f, -0.24455078f, 0.21058337f, -0.16206478f, -0.31828818f, 0.24926655f, 0.29416457f, -0.3475751f, -0.27162185f, -0.057099525f, -0.093692355f, -0.19338615f, 0.10849981f, -0.01753332f, -0.26907018f, 0.13370235f, 0.2637844f, -0.24273126f, -0.33578753f, -0.0023374998f, -0.19515912f, -0.13742143f, 0.31391856f, -0.17391795f, -0.21303448f, 0.022301208f, 0.05617067f, -0.39596698f, -0.45887962f, -0.060012575f, -0.00085346674f, -0.14094198f, 0.36586067f, -0.07683665f, -0.051505074f, -0.096367724f, -0.09969026f, -0.1446494f, -0.2260795f, -0.22443418f, -0.08509271f, 0.016739741f, 0.34512344f, -0.029848218f, -0.08526669f, -0.112940244f, -0.0679973f, -0.21484882f, -0.068163544f, -0.14588636f, -0.14377958f, 0.056708343f, 0.23126586f, 0.08214419f, 0.22712488f, -0.07957015f, 0.16391015f, 0.06306803f, 0.048534643f, -0.25994557f, 0.15949696f, -0.18725175f, -0.14227356f, 0.20309995f, 0.1978855f, -0.08412891f, -0.014253516f, 0.12617253f, 0.115003176f, -0.06238421f, 0.09699042f, -0.144453f, -0.13662072f, -0.06260639f, -0.064206004f, 0.064757414f, 0.03440708f, 0.042832814f, 0.044519223f, 0.07518319f, 